{"type":"LSTM","options":{"inputSize":37,"inputRange":37,"hiddenLayers":[20,20],"outputSize":37,"decayRate":0.999,"smoothEps":1e-8,"regc":0.000001,"clipval":5,"maxPredictionLength":100,"dataFormatter":{"indexTable":{"T":0,"h":1,"i":2,"s":3," ":4,"m":5,"o":6,"v":7,"e":8,"w":9,"a":10,"g":11,"r":12,"t":13,"!":14,"I":15,"l":16,"y":17,"n":18,"j":19,"d":20,".":21,"p":22,"f":23,"c":24,"z":25,"W":26,"H":27,"b":28,"k":29,"A":30,"u":31,"N":32,",":33,"stop-input":34,"start-output":35,"unrecognized":36},"characterTable":{"0":"T","1":"h","2":"i","3":"s","4":" ","5":"m","6":"o","7":"v","8":"e","9":"w","10":"a","11":"g","12":"r","13":"t","14":"!","15":"I","16":"l","17":"y","18":"n","19":"j","20":"d","21":".","22":"p","23":"f","24":"c","25":"z","26":"W","27":"H","28":"b","29":"k","30":"A","31":"u","32":"N","33":",","34":null,"35":null,"36":null},"values":[{"input":"This movie was great! I really enjoyed it.","output":"positive"},{"input":"I loved the film. The acting was amazing.","output":"positive"},{"input":"What a fantastic movie! Highly recommend.","output":"positive"},{"input":"The movie was terrible. I hated it.","output":"negative"},{"input":"I did not like the film. It was boring.","output":"negative"},{"input":"Awful movie. Waste of time.","output":"negative"},{"input":"The movie was okay. Not great, not terrible.","output":"neutral"},{"input":"It was an average film. Nothing special.","output":"neutral"},{"input":"The movie was neither good nor bad.","output":"neutral"}],"characters":["T","h","i","s"," ","m","o","v","e","w","a","g","r","t","!","I","l","y","n","j","d",".","p","f","c","z","W","H","b","k","A","u","N",",","stop-input","start-output","unrecognized"],"specialIndexes":[34,35,36]}},"trainOpts":{"iterations":2000,"errorThresh":0.011,"log":true,"logPeriod":100,"learningRate":0.01,"callbackPeriod":10,"timeout":"Infinity"},"input":{"rows":38,"columns":37,"weights":[0.6173259615898132,-1.180421233177185,-0.33649134635925293,-0.4320489764213562,0.5608512759208679,-1.0789765119552612,-0.08325762301683426,0.6678860187530518,-0.06892452389001846,-0.47774195671081543,0.18665944039821625,-0.6354465484619141,0.36596712470054626,-0.9359845519065857,0.05378454551100731,0.3536742329597473,-0.7204312086105347,0.5233383774757385,-0.4885430932044983,0.5529624819755554,0.19331848621368408,1.198236107826233,0.017407305538654327,-0.23560212552547455,0.3538738489151001,-0.35321611166000366,-0.625883936882019,0.10688850283622742,-0.6342902779579163,-0.13793659210205078,-0.14081022143363953,-0.1936250925064087,-0.09810838848352432,0.1330072432756424,0.15390154719352722,-0.6396105289459229,0.13757826387882233,1.9490292072296143,-0.7234158515930176,-1.4808694124221802,-1.4653997421264648,-0.2494499236345291,1.0812134742736816,-0.5830500721931458,0.8323448896408081,-1.2267357110977173,1.8653653860092163,1.502484917640686,-1.7124664783477783,0.19236619770526886,-0.49272865056991577,1.55767822265625,-1.8854587078094482,0.08599480241537094,0.2583744525909424,1.7810271978378296,1.604085087776184,0.3387531638145447,0.571789026260376,-0.541827380657196,-1.5294523239135742,1.4840326309204102,-1.4057421684265137,-2.398555040359497,-0.0868445634841919,-1.2207366228103638,-0.7665127515792847,-0.7422654032707214,2.5010762214660645,-1.9840993881225586,-0.8278369903564453,-1.3888875246047974,0.07800769060850143,-1.4783226251602173,-0.4026223123073578,1.438235878944397,-0.21077914535999298,0.44148510694503784,-0.8936938047409058,0.6714088320732117,-0.31666702032089233,0.580845832824707,0.5517014861106873,-1.0878881216049194,0.18530718982219696,-0.1963745802640915,-0.960574746131897,1.815582513809204,0.0027038671541959047,1.0032387971878052,0.8919410109519958,1.4520047903060913,1.2602097988128662,0.8102147579193115,1.5195338726043701,-1.6403076648712158,-1.0421332120895386,0.16972716152668,0.43941405415534973,0.23082827031612396,-1.1199438571929932,-0.6973800659179688,-0.8563994765281677,0.6058601140975952,-0.507251501083374,-1.4297571182250977,-0.28270861506462097,1.1882485151290894,0.9040263295173645,0.5460111498832703,0.8590571880340576,0.31861960887908936,0.4403840899467468,-0.5617440342903137,0.5383018255233765,-0.315089613199234,-0.012013422325253487,-0.12091214209794998,0.4222087562084198,-0.07098470628261566,-0.05920521542429924,0.05078588426113129,-0.17371535301208496,0.01773099973797798,0.2864067554473877,0.026689834892749786,0.411758154630661,0.3836299777030945,0.11502685397863388,0.44945451617240906,0.5900557637214661,-0.2558777928352356,-0.4242834150791168,-0.29518359899520874,0.39424702525138855,0.2320413589477539,-0.2641885578632355,-0.047882456332445145,-0.11218994855880737,0.04486623778939247,0.35829809308052063,0.19368194043636322,-0.38372132182121277,-0.5936959385871887,0.04862659424543381,-0.08850802481174469,0.2917052209377289,-0.03646380454301834,-0.4619585871696472,-0.48178714513778687,0.36587825417518616,0.05978575348854065,0.534200131893158,0.5956634283065796,0.7764542102813721,-0.591542661190033,1.1188913583755493,0.16027753055095673,-0.4407937228679657,0.7138901948928833,0.19418446719646454,-0.7723219990730286,0.05960216745734215,0.7826049327850342,-0.7347742319107056,1.3649871349334717,-1.2294219732284546,0.30076178908348083,-0.29384636878967285,0.4509768486022949,-0.28635019063949585,-1.1658838987350464,1.14529287815094,1.373382329940796,0.8106613159179688,-0.6726028323173523,-1.003395915031433,1.0750970840454102,1.2552889585494995,-0.08046089112758636,-0.6085579991340637,2.4823837280273438,0.44805625081062317,-2.9924938678741455,-0.8846695423126221,-0.9175258278846741,-0.6923243999481201,0.3290042281150818,-0.8461953401565552,-0.38945892453193665,-0.7535803914070129,-0.863466203212738,-0.36338746547698975,-0.9213991165161133,0.11645923554897308,0.9854979515075684,0.16806145012378693,0.2756901979446411,-0.5019142031669617,-0.4712216854095459,-0.9626104831695557,-0.3064468801021576,-0.8473966717720032,-0.09985779225826263,-0.2798197269439697,-1.8503776788711548,0.5743003487586975,0.8219261765480042,2.4855825901031494,-0.5978221297264099,-1.7580724954605103,2.515991449356079,0.5062367916107178,0.7395741939544678,-1.1569398641586304,-0.509157121181488,0.9610264897346497,0.6397819519042969,0.5365676283836365,-0.9337261319160461,0.08585686981678009,0.6647511124610901,1.1152756214141846,0.6395646333694458,-0.3826337158679962,0.910275399684906,1.152302861213684,0.8884270787239075,0.3595571219921112,-0.6381087899208069,0.591629147529602,0.32770073413848877,-0.7443954944610596,-0.057222880423069,0.46177011728286743,0.2983788251876831,0.856658935546875,0.09175719320774078,0.046174950897693634,-0.3816583454608917,0.07400556653738022,0.16865696012973785,-0.44116637110710144,-0.7181841135025024,-0.07886869460344315,-0.28958120942115784,0.31023913621902466,1.3085484504699707,-0.2580186426639557,0.45090895891189575,-0.043651118874549866,-0.0694696456193924,-0.4500429630279541,-0.002509198384359479,-0.776317834854126,-1.6176064014434814,0.2247421145439148,-1.062814712524414,-2.083266496658325,-0.1331566423177719,-0.46043291687965393,-0.24661460518836975,0.1265583038330078,0.8410951495170593,0.30394700169563293,-0.28836318850517273,-0.3175470530986786,0.6497697830200195,-0.2258540242910385,-0.3205093741416931,0.15594106912612915,1.0111429691314697,-0.321563720703125,-0.6972708702087402,0.37195897102355957,-0.4165560007095337,0.8083130717277527,-0.19895879924297333,0.033395916223526,-0.009837656281888485,0.4674997329711914,0.08610564470291138,0.058005284518003464,0.6080438494682312,-0.07071691751480103,-0.01783985272049904,0.4975438714027405,-0.7168239951133728,0.3965569734573364,-0.07758711278438568,-0.1352347880601883,-0.044042471796274185,-0.6731079816818237,0.15459227561950684,-0.38556963205337524,0.45901185274124146,-0.15983453392982483,0.08053020387887955,-0.36370089650154114,0.2904255986213684,0.8900371789932251,0.2085692584514618,-0.023440398275852203,0.2990187108516693,-0.2521819472312927,0.3542892038822174,0.0371793657541275,0.7738223075866699,0.032430920749902725,0.08074403554201126,-0.26242679357528687,0.1434631645679474,-0.26970362663269043,-0.4267071485519409,0.2423308789730072,-0.472422331571579,1.1062297821044922,-0.10417930036783218,-0.6944366693496704,-1.0859018564224243,-0.7754692435264587,0.6778354048728943,-2.9784786701202393,0.3121398091316223,-0.4859640300273895,0.43711069226264954,0.7380244135856628,-0.16671234369277954,0.031108815222978592,0.14247070252895355,0.03464612737298012,2.521167516708374,-0.02302534133195877,0.16631130874156952,-1.3333380222320557,0.32168644666671753,0.07010849565267563,0.8357713222503662,0.341139554977417,0.31187647581100464,-0.18852265179157257,0.46326568722724915,0.9444131851196289,0.11107348650693893,-0.03809843212366104,0.9524111747741699,-1.680240511894226,-0.020069783553481102,0.25910279154777527,-1.7306203842163086,-0.07549257576465607,-2.2535502910614014,0.0826500728726387,-0.9643812775611877,1.4618088006973267,0.5732460021972656,-1.5703717470169067,0.0004260468122083694,0.13067185878753662,0.1467038094997406,-0.4526050090789795,-0.5002066493034363,0.20169901847839355,0.15655091404914856,0.7302026152610779,-0.5086722373962402,0.30938470363616943,0.010721510276198387,-1.869691252708435,-0.6263178586959839,0.20421305298805237,-0.7842907309532166,1.4231781959533691,0.19816672801971436,1.9649028778076172,1.090703010559082,-0.9134292602539062,-1.8396530151367188,-0.7650168538093567,0.5620415210723877,0.8333336114883423,0.48065489530563354,0.9953558444976807,-1.4788763523101807,-0.005338591523468494,-1.0695769786834717,-1.3103729486465454,-0.12520542740821838,-1.5885785818099976,-0.8881868124008179,-1.085814118385315,1.0697094202041626,1.3855750560760498,-0.7063849568367004,0.23433659970760345,0.4317445456981659,0.12862971425056458,0.5675705671310425,-0.23198728263378143,0.3385002613067627,-2.061574697494507,2.2748236656188965,0.13076791167259216,-1.1675078868865967,-1.5748928785324097,-1.221865177154541,-0.3348481059074402,1.119286060333252,0.0410311333835125,-0.13308191299438477,0.20792627334594727,-0.0755191445350647,-0.4612579643726349,1.0876843929290771,0.6174106597900391,1.200209617614746,0.5598611831665039,-1.4183776378631592,0.6008510589599609,-0.05410059913992882,-0.08811051398515701,0.056179504841566086,0.41183456778526306,-0.02448221668601036,-0.1298467367887497,0.43493756651878357,-0.6567447781562805,-0.16115866601467133,-0.06922464072704315,-0.6558796167373657,-0.3562113642692566,0.27921104431152344,1.3937420845031738,-1.1645644903182983,-0.3502160906791687,-0.4193362593650818,0.6550232768058777,1.8950605392456055,-0.5619326233863831,-0.8602993488311768,-0.7120272517204285,0.9523402452468872,0.2183387130498886,-1.5380878448486328,0.15051209926605225,-0.874806821346283,0.5304831862449646,-0.600294291973114,-0.6186092495918274,0.13320910930633545,-0.4861297607421875,-0.2740738093852997,-0.07701975107192993,0.5922062993049622,0.27794796228408813,0.2318376749753952,-0.4465845227241516,-0.8144680857658386,0.36327749490737915,-0.12472967058420181,-0.8434350490570068,0.19313682615756989,-0.50926673412323,0.25485795736312866,0.6805820465087891,0.6818925142288208,0.07284314185380936,-2.0473814010620117,-0.07323898375034332,-0.38915595412254333,-0.6582798957824707,0.2062322050333023,-0.07970745116472244,0.24365021288394928,-0.3006848096847534,0.341463565826416,-0.26615989208221436,0.320320725440979,-0.41435354948043823,-1.0218098163604736,-0.030544890090823174,-0.6120472550392151,-1.4074403047561646,0.26195228099823,-1.1307923793792725,-1.394126534461975,-0.564437747001648,-0.46630173921585083,-1.7961307764053345,-1.0295225381851196,-1.4070305824279785,1.595926284790039,0.04173687472939491,-1.5958678722381592,-0.9118044376373291,-0.7351709008216858,-0.9700081944465637,-0.3324524164199829,-0.8756222724914551,-0.7157064080238342,-0.377835214138031,-1.7723371982574463,1.1733639240264893,0.8138920068740845,0.06863483041524887,-1.786637544631958,0.005063893739134073,1.266260027885437,0.10692148655653,1.4613118171691895,-1.1228374242782593,-1.227440595626831,1.4930541515350342,-0.1810997873544693,1.4161968231201172,-1.1048738956451416,-2.6375391483306885,0.10828223824501038,0.30050498247146606,0.6096385717391968,-1.3818726539611816,-0.07223165035247803,0.8999058604240417,0.6452383995056152,-1.034075379371643,-0.3990047574043274,-0.9506025314331055,0.7223943471908569,0.28870484232902527,-0.8868574500083923,1.0485522747039795,1.2774658203125,1.0030219554901123,0.1917724311351776,1.075790524482727,0.987523078918457,1.8272156715393066,1.6502398252487183,0.6299690008163452,-0.8130009174346924,-0.4216502904891968,-1.3671828508377075,0.8378219604492188,-1.297786831855774,-0.9925602078437805,0.09066005051136017,-1.1467558145523071,-0.20133423805236816,0.4053988754749298,0.26596468687057495,-2.0023446083068848,1.264855980873108,-0.8432081341743469,1.3402360677719116,-2.318972110748291,-1.8989545106887817,-3.2798216342926025,1.007036805152893,0.019735950976610184,-0.31139180064201355,-0.0555039718747139,0.6514894962310791,-1.5513896942138672,0.5721232891082764,-0.4272684156894684,-0.09718138724565506,1.3899786472320557,1.7849301099777222,-3.6595752239227295,-1.9259717464447021,-0.6350773572921753,-4.161678314208984,-2.412653684616089,-3.6013286113739014,-2.2588067054748535,-1.2103736400604248,2.8794710636138916,0.28346094489097595,-1.3438457250595093,-2.251460552215576,-0.09651210159063339,2.2382657527923584,1.0087419748306274,1.850029468536377,0.07901418209075928,-0.6508556604385376,0.9797134399414062,1.8928275108337402,-1.4302737712860107,-0.2286551594734192,-3.748483657836914,-1.9508568048477173,-0.1873723417520523,0.2006281167268753,-1.6037025451660156,1.0922664403915405,1.6030807495117188,2.3124685287475586,0.35630494356155396,3.105069875717163,0.6180394887924194,1.791992425918579,-1.6984139680862427,-0.7779658436775208,0.37185049057006836,0.5831081867218018,1.619807481765747,1.6451009511947632,0.839913010597229,0.9353712201118469,0.010790684260427952,0.23360015451908112,1.6302273273468018,-0.4690948724746704,-2.0132880210876465,0.8042535185813904,0.34827542304992676,-0.22050213813781738,-0.1505437046289444,-1.3965831995010376,-0.35130202770233154,1.6372524499893188,1.5447804927825928,-2.233645439147949,-1.8274966478347778,1.3698513507843018,2.3735673427581787,0.28431999683380127,-2.0149455070495605,1.3984192609786987,0.11455385386943817,-1.4661622047424316,0.006682179402559996,0.05626800283789635,0.6829418540000916,0.2421775609254837,-0.6295101642608643,0.11213009059429169,-0.4084467887878418,0.3418003022670746,0.15209746360778809,0.46942710876464844,0.20806874334812164,0.4706145226955414,-0.29000377655029297,0.5201534628868103,1.263214111328125,0.6854540705680847,1.527971625328064,0.15044064819812775,-0.2296122908592224,-0.5488564372062683,-1.0630543231964111,0.5932629108428955,0.14661318063735962,-0.7671242952346802,0.14900588989257812,-0.20886030793190002,1.3574833869934082,-0.27983805537223816,-0.36487165093421936,-1.1309313774108887,-0.6923761367797852,-0.7155110836029053,-0.13888782262802124,-0.14368683099746704,-2.065873622894287,-3.4596476554870605,0.9405336976051331,0.07652416825294495,-0.0953003391623497,-1.8927406072616577,-0.003314984729513526,-0.3308035731315613,-0.6377958655357361,-0.5460488796234131,0.4520820677280426,1.3378700017929077,2.3229079246520996,-4.182404041290283,-1.6032109260559082,0.08940312266349792,-3.2529499530792236,-1.425795078277588,-3.1120004653930664,-0.16882026195526123,-0.3040200173854828,3.8629181385040283,0.25232669711112976,0.4812154769897461,-1.004408359527588,-1.4660383462905884,1.1108105182647705,0.29252251982688904,0.09435492008924484,-1.675605297088623,0.10073457658290863,0.608012318611145,1.8224650621414185,-0.15852196514606476,-0.4018966853618622,0.5058019161224365,-0.22835586965084076,0.4184684455394745,-1.2847802639007568,0.07638521492481232,-1.037847876548767,-0.5488719940185547,-1.0475341081619263,-0.0818178728222847,0.3244570791721344,0.3811962306499481,-0.38238951563835144,-0.4393318295478821,-0.10008040070533752,0.36762735247612,-1.2582095861434937,-0.2469564825296402,0.22385047376155853,-1.0168932676315308,0.56512051820755,-0.6427770256996155,0.25128403306007385,0.20732669532299042,1.2985063791275024,-0.477042555809021,-1.955135703086853,0.2772740423679352,0.6117066740989685,-0.8238851428031921,-0.1550452560186386,-0.5194541811943054,-0.10377772152423859,0.9062153100967407,-0.33878737688064575,-0.6382508277893066,2.1636035442352295,0.35079705715179443,-1.1853300333023071,0.020326344296336174,2.342036247253418,3.952819585800171,-0.5430746674537659,1.791847825050354,-1.4528042078018188,2.81012225151062,1.0836760997772217,-1.002539873123169,0.21852123737335205,-0.5878676176071167,1.4382579326629639,-1.1067328453063965,0.260077565908432,3.82680606842041,1.8494746685028076,0.49056243896484375,3.8860671520233154,2.552570104598999,5.004396438598633,4.904943466186523,2.006312847137451,-4.03185510635376,-2.867753028869629,-0.5666061639785767,1.1927014589309692,-0.6432366967201233,-5.9010419845581055,-0.4018167555332184,-4.416528224945068,3.9270663261413574,-1.792810082435608,0.7017871141433716,-2.731189012527466,-1.1196041107177734,1.5445661544799805,4.235695838928223,0.9641683101654053,-0.3452303111553192,0.5628505945205688,0.12320659309625626,0.6589367985725403,0.8922317028045654,0.15042594075202942,1.610802173614502,-0.3652294874191284,1.664132833480835,-1.1694706678390503,-0.2791484296321869,1.1931843757629395,0.3753925561904907,0.27715012431144714,-0.6467136740684509,0.11742895096540451,-0.4239197373390198,-0.216932013630867,0.3574330508708954,-1.287212610244751,-0.05168231576681137,-0.36029285192489624,0.027225907891988754,0.31273505091667175,-0.12702687084674835,1.1047377586364746,2.20678973197937,-0.4723588526248932,0.5179635286331177,-0.20866495370864868,0.08697721362113953,-0.6515737175941467,2.6421141624450684,-2.9928572177886963,1.5116393566131592,-1.652194619178772,0.0309562049806118,-0.5508161783218384,-1.8073569536209106,0.6505658030509949,-0.1657179892063141,-0.09917427599430084,-0.1334027796983719,-0.2112639993429184,-1.0110899209976196,-0.3330223262310028,-0.2899661958217621,0.4736003279685974,0.5319714546203613,1.120781660079956,-1.8455302715301514,-0.5553369522094727,-0.48396921157836914,-1.5020722150802612,-0.49742192029953003,-1.5870583057403564,-1.269768476486206,-0.9790595173835754,1.8997987508773804,0.6336274147033691,-0.47588539123535156,-0.4400019645690918,-0.1620398461818695,1.9571069478988647,0.29044994711875916,1.0760498046875,-0.474312424659729,-0.4407276511192322,0.8595131039619446,0.6088523268699646,0.2807956337928772,-0.4065967798233032,-1.4148786067962646,-0.048628684133291245,-0.25528568029403687,2.1056506633758545,-0.8149247765541077,0.3282347619533539,0.41518914699554443,0.6245602965354919,-0.009781158529222012,-0.5556558966636658,-1.4249262809753418,0.6168372631072998,0.3902301788330078,0.2741636037826538,-1.8291823863983154,2.181918144226074,0.3527872860431671,0.29280558228492737,2.0075979232788086,-1.520715594291687,1.7023125886917114,1.790988564491272,-0.13934947550296783,-1.993245005607605,-1.4031922817230225,-1.9443085193634033,-0.6173744201660156,0.1971437633037567,-2.7451987266540527,1.147550106048584,-1.0350111722946167,0.8850184082984924,0.5276401042938232,-0.7375468015670776,-1.547358751296997,0.969074547290802,-0.578568160533905,1.978598713874817,-1.1274386644363403,0.686028003692627,1.951937198638916,-0.5220664739608765,0.338134229183197,-1.4284027814865112,-0.83302903175354,0.19883456826210022,0.36169248819351196,0.5625285506248474,-0.14070865511894226,-1.3169059753417969,-0.17100659012794495,-1.7125604152679443,2.3390345573425293,-0.8625123500823975,0.4187280833721161,2.117326498031616,1.088545560836792,1.207187533378601,0.09270884841680527,1.2663706541061401,-1.8686904907226562,0.12023855000734329,-0.7912350296974182,0.4862802028656006,0.5877943634986877,-1.220833420753479,-0.1671237200498581,1.10283625125885,-0.3751600682735443,0.3231578767299652,-0.3406080901622772,0.6183393597602844,2.943995237350464,0.5776184797286987,1.6499649286270142,2.0072901248931885,-0.03244797885417938,-0.4542672336101532,0.22146075963974,1.152860403060913,2.679210662841797,0.49978160858154297,0.4449363946914673,-0.6072378158569336,0.8803150057792664,-0.23569253087043762,-0.07831556349992752,-0.5480551719665527,3.931455373764038,-0.8119661211967468,1.0511670112609863,1.6901171207427979,-0.7549623250961304,0.9062655568122864,-1.3427830934524536,0.8283068537712097,1.0173087120056152,0.49945980310440063,-0.287564754486084,-1.034534215927124,0.6067140698432922,0.8324397802352905,-0.20098841190338135,0.37358880043029785,-2.252845525741577,0.862612247467041,-0.22333551943302155,-0.18524013459682465,-0.4359773099422455,-0.23402389883995056,0.9576036930084229,-0.9828307628631592,-3.2164015769958496,0.8220028281211853,2.9807753562927246,1.2141767740249634,1.3891879320144653,-1.3251032829284668,2.3392181396484375,4.7249064445495605,1.2785500288009644,2.5451369285583496,1.1814706325531006,-1.2497379779815674,0.8621745705604553,-4.195069313049316,4.058959007263184,-0.6052927374839783,1.1604021787643433,3.5697920322418213,-0.513024091720581,3.1408886909484863,-1.2768642902374268,0.6482511162757874,-4.418473720550537,-1.5168431997299194,0.8818079829216003,0.8214951157569885,2.8965911865234375,-1.2950571775436401,-1.8171488046646118,0.18313126266002655,-0.26115718483924866,1.9635452032089233,-0.603588342666626,-1.1834521293640137,3.7346584796905518,0.2694914937019348,0.37789565324783325,3.5974535942077637,-0.3323969841003418,1.5920684337615967,-3.896934986114502,2.2159528732299805,-1.3770661354064941,-0.5655257701873779,-1.166230320930481,1.6131631135940552,-1.7211954593658447,0.7105324864387512,-3.948270559310913,-2.3320038318634033,-4.074431419372559,2.3099493980407715,-1.4150525331497192,3.0782175064086914,2.241580009460449,0.13719381392002106,1.3183923959732056,0.5477846264839172,3.7844207286834717,-1.5039973258972168,0.7827375531196594,3.3962135314941406,0.5166930556297302,0.2810111939907074,-0.44437655806541443,0.7445889115333557,1.745548963546753,-0.806544303894043,3.372939348220825,-2.889575958251953,3.225543975830078,4.081996440887451,0.5535455346107483,2.8753936290740967,4.28306245803833,-2.2632455825805664,0.11308813095092773,1.50071120262146,-3.674896478652954,-2.3772897720336914,-1.4727002382278442,-5.940507888793945,-5.548226833343506,-1.9467028379440308,-4.727685451507568,5.970621109008789,3.6553971767425537,0.4091152250766754,0.9999116659164429,0.4505831301212311,-5.804265975952148,-0.7867714166641235,-0.6439709663391113,1.5523912906646729,0.1485539674758911,-0.5658002495765686,-0.8895617723464966,2.634333848953247,-0.5206482410430908,-2.3573832511901855,-0.7529430389404297,0.5743659734725952,3.212507486343384,0.7691224217414856,-2.0355756282806396,-7.349161148071289,3.5892536640167236,0.7349827885627747,-2.703484535217285,-4.663556098937988,-0.6999404430389404,-0.07081194221973419,0.007849263027310371,-1.959775686264038,-0.7606993317604065,-0.035605452954769135,1.20192551612854,-0.379223108291626,-1.1687642335891724,0.6420490145683289,-1.428063154220581,0.08508871495723724,-0.01768123358488083,-1.493820309638977,0.8499146103858948,-1.7614498138427734,0.8298608660697937,-0.266300231218338,-1.111197590827942,0.7313079833984375,-0.9189004898071289,0.5496077537536621,1.7264697551727295,1.800766110420227,-1.2987639904022217,-0.24306577444076538,0.047964394092559814,-0.23404881358146667,-0.3638521432876587,1.0777357816696167,-0.2031097412109375,-0.21514993906021118,0.33540579676628113,-0.5212433338165283,-1.4254287481307983,-0.5103684663772583,-1.130566954612732,-0.2861897647380829,0.35913002490997314,0.5518254637718201,1.4931424856185913,1.9665570259094238,3.9480183124542236,1.320915937423706,2.399780035018921,0.5153499841690063,4.719163417816162,1.1209816932678223,-0.6698075532913208,0.15847539901733398,-1.6906044483184814,0.1602059155702591,0.7400667071342468,-0.8181257247924805,-0.07527747005224228,0.4001855254173279,-0.06857511401176453,-0.28952541947364807,3.354219436645508,3.264885187149048,-1.078998327255249,-2.156423330307007,-0.9996561408042908,-0.4456421136856079,-2.418203592300415,-2.1736817359924316,0.2934606671333313,-2.2603514194488525,-0.2342471182346344,-3.505703926086426,-4.288949489593506,2.4280781745910645,-3.1747710704803467,9.196224212646484,4.816549301147461,0.14969559013843536,-1.9679847955703735,-3.2002532482147217,1.9537010192871094,0.2677138149738312,2.3833303451538086,-2.6052587032318115,0.4438979923725128,-0.5230305194854736,0.6075353622436523,-2.625009536743164,-0.5954892039299011,0.869189441204071,3.0880417823791504,-3.2909047603607178,-2.530858278274536,-0.5295599699020386,-3.1703832149505615,0.5312411785125732,-3.026700258255005,-4.3367533683776855,-2.7337257862091064,3.192678451538086,0.4127363860607147,-0.15234339237213135,0.3108014166355133,-1.3981430530548096,3.0816333293914795,-0.20314890146255493,0.7233238816261292,0.4693745970726013,-0.051529403775930405,0.12275286018848419,2.3949315547943115,-1.547201156616211,-0.19265103340148926,-0.916707456111908,1.0595805644989014,-0.0806291326880455,1.8112003803253174,-0.5837935209274292,0.0688348338007927,0.34262245893478394,-0.2676790952682495,0.18416282534599304,1.6100469827651978,0.33364760875701904,-0.19716688990592957,0.2302423119544983,-0.46727657318115234,-1.8195918798446655,1.3676154613494873,-1.7296909093856812,1.5060954093933105,0.32711702585220337,-0.003473297692835331,0.18768441677093506,-1.0436842441558838,-0.9340530037879944,-2.0017330646514893,-1.0603097677230835,2.0315539836883545,-0.7252493500709534,0.4491743743419647,1.6755647659301758,-0.6656907796859741,2.512404203414917,-0.6863365173339844,0.027555178850889206,-1.061185598373413,0.15617837011814117,3.420074462890625,2.7695553302764893,0.4212189316749573,-0.32263633608818054,-0.1516113579273224,-1.7025328874588013,1.2312511205673218,-2.085378885269165,0.5640058517456055,-1.7472988367080688,-2.0356876850128174,-1.1003365516662598,-2.0753376483917236,-2.2791154384613037,3.5500917434692383,-0.974255383014679,3.0138139724731445,-1.4478553533554077,1.2683162689208984,-1.3549343347549438,-1.4226758480072021,1.7972564697265625,0.34486162662506104,1.5197844505310059,0.43167242407798767,1.6763334274291992,1.3227227926254272,-3.0184741020202637,-0.6495922803878784,-3.0193564891815186,-4.151668548583984,0.630416989326477,-3.134964942932129,-0.06603225320577621,-2.6087844371795654,1.8388302326202393,-0.7484718561172485,-1.6926541328430176,-1.4760409593582153,0.5995839238166809,-1.6409662961959839,-1.260510802268982,-3.308583974838257,1.862817406654358,-1.4606877565383911,1.3052481412887573,-2.257852554321289,-0.16965441405773163,-1.388069748878479,-0.8471681475639343,-0.5699198246002197,0.9544351100921631,1.678878664970398,0.09099812060594559,-3.6126699447631836,-1.818385362625122,-1.3607584238052368,-2.8501579761505127,-2.0128142833709717,-3.4102556705474854,-1.5613688230514526,-1.635683298110962,3.5321338176727295,1.548039436340332,-0.5527504086494446,-1.1349622011184692,-0.8599777221679688,2.0739846229553223,1.425473690032959,-1.4685041904449463,-2.1349973678588867,-0.5637076497077942,1.7933061122894287,1.8762954473495483,0.5157331228256226,-1.2899893522262573,-2.1331512928009033,-0.17107956111431122,-1.0240399837493896,-2.593048572540283,0.5223985910415649,0.046718280762434006,-0.09595191478729248,-0.21105913817882538,0.7894287109375,-0.9200146198272705,0.17355428636074066,-0.34385573863983154,0.06962237507104874,0.9145917296409607,1.7236653566360474,-3.0304789543151855,-0.855384349822998,-0.7757105231285095,-2.511512279510498,-0.43983811140060425,-2.191209316253662,-1.6224157810211182,-1.0630489587783813,2.6593661308288574,0.15939956903457642,-0.2057109922170639,-0.38456305861473083,-0.38151106238365173,2.099832773208618,0.11009084433317184,0.8245998620986938,0.03615462779998779,-0.015337372198700905,1.0322993993759155,0.6283872127532959,0.015818053856492043,-0.9974336624145508,-1.3153623342514038,0.550116240978241,-0.17744667828083038,-1.5106022357940674,0.7228376865386963,-0.2362501472234726,0.14397040009498596,-0.9834328889846802,-0.02524108625948429,0.12299298495054245,-0.20822513103485107,-0.789494514465332,0.3435288965702057,-0.10145178437232971,0.5924606323242188,-1.484894037246704,-0.20925743877887726,-0.23701903223991394,-0.9946677684783936,-0.35510414838790894,-1.2868362665176392,-0.30054450035095215,-0.08487731963396072,1.9113136529922485,-0.29884010553359985,-0.5942861437797546,-0.4815182387828827,-0.19926153123378754,0.8229472637176514,-0.010913792997598648,0.08029832690954208,-1.018263339996338,-0.707843542098999,-0.1002093106508255,0.4643031060695648,0.7486011981964111,0.7744088172912598,-0.2134786993265152,-0.03126726672053337,0.0021264487877488136,0.07182861864566803,0.010399894788861275,-0.0176810622215271,0.014146600849926472,0.011062617413699627,0.05081183835864067,-0.00529415812343359,0.05764853581786156,0.034322723746299744,-0.05192416533827782,-0.0007810345268808305,0.015133703127503395,0.007149265147745609,0.03626652806997299,0.009380391798913479,-0.07198109477758408,-0.03516100347042084,-0.0781029760837555,-0.019426455721259117,-0.0558633878827095,-0.0018075209809467196,-0.06334009021520615,-0.07405450940132141,-0.02987276017665863,-0.04721927270293236,-0.07166967540979385,0.034034550189971924,-0.023039184510707855,0.07077771425247192,-0.045234352350234985,-0.0017662860918790102,-0.037179406732320786,0.05215427279472351,-0.0653344988822937,-0.053983625024557114,0.05648690462112427]},"hiddenLayers":[{"inputMatrix":{"rows":20,"columns":37,"weights":[-0.6379954218864441,0.5173011422157288,0.8128162026405334,-1.1287176609039307,0.3592306971549988,0.26860496401786804,-0.3193409740924835,-0.7250993251800537,-0.7516406178474426,-0.9520804286003113,1.4481998682022095,1.258317232131958,-0.43849700689315796,0.5951043963432312,-0.19443634152412415,-0.10797344148159027,-0.014059570617973804,0.6450426578521729,0.44065940380096436,0.0688859149813652,0.07806835323572159,-0.8871548771858215,-0.3482475280761719,-1.0653549432754517,-0.266258180141449,-0.1325409859418869,-1.009636640548706,-0.33719998598098755,-0.6845204830169678,0.48536911606788635,-0.3933839797973633,0.5512694120407104,-1.3872790336608887,0.7762554883956909,-0.6158764362335205,-0.24254678189754486,-1.0183160305023193,-0.05077411234378815,-0.9792391657829285,0.7914525270462036,0.38211971521377563,1.7790168523788452,-0.07000540941953659,-0.070566825568676,1.327457308769226,1.128818392753601,0.6200445890426636,-1.490407943725586,0.6012653112411499,0.7084124088287354,-1.4093523025512695,-0.8151918053627014,0.46299004554748535,-2.0523219108581543,0.3359166979789734,-1.384459137916565,-0.9267618656158447,0.3309490978717804,1.0750631093978882,-0.1959638148546219,-0.2563115358352661,0.6833407878875732,0.26376232504844666,0.14335207641124725,0.09756902605295181,-0.6036972999572754,0.22013075649738312,0.6549968123435974,-0.7081475853919983,1.0819194316864014,0.30400994420051575,1.1308863162994385,-0.20956629514694214,0.13176777958869934,-0.8361125588417053,0.9955042004585266,0.09492696076631546,0.11737051606178284,1.4991297721862793,0.6870039701461792,-0.36994868516921997,0.039437003433704376,-0.3725685477256775,0.1537267565727234,0.1164695993065834,0.16676472127437592,0.13904941082000732,0.8210157752037048,-0.07053625583648682,1.418205976486206,0.1035834550857544,0.7881378531455994,-0.35558485984802246,-0.48933571577072144,0.9403905868530273,-1.0444649457931519,-0.8721882104873657,-0.4111270606517792,-0.7082975506782532,-0.2687534689903259,-0.43830859661102295,0.21333400905132294,-0.31370124220848083,0.7291666269302368,0.012334883213043213,-0.11397634446620941,-0.1545109748840332,2.960726499557495,0.37586766481399536,1.375494360923767,0.9393702149391174,0.018840515986084938,0.1475449502468109,-1.2480438947677612,0.06289771944284439,-0.9702602624893188,0.9418830275535583,-0.3159130811691284,-0.2990899085998535,-0.2691896855831146,-0.08644776046276093,0.38445019721984863,-1.0269149541854858,-1.908960223197937,0.9807162284851074,0.33234935998916626,0.35644423961639404,1.5113023519515991,0.9941453337669373,0.37028276920318604,1.4646743535995483,-0.3997515141963959,-0.09920582920312881,0.4875156283378601,1.4810947179794312,0.6050499677658081,-0.5654672980308533,1.1251366138458252,0.04794064536690712,0.21898840367794037,0.7168557047843933,-0.7645740509033203,-0.27182039618492126,-0.1865651160478592,0.6386628150939941,-0.8371120095252991,-0.3285016715526581,1.8353749513626099,-0.8458547592163086,0.034020762890577316,1.3734678030014038,-0.23456192016601562,0.7335301637649536,-0.0666206106543541,0.2325320988893509,-1.392176628112793,-0.36055803298950195,-0.7846240997314453,0.5438669919967651,0.7399419546127319,1.1924738883972168,-0.21469371020793915,-0.020776895806193352,-1.4200972318649292,-0.2704528570175171,-1.8624473810195923,-0.2850773334503174,-1.0401750802993774,-0.8263946771621704,0.21759344637393951,1.337648868560791,0.6702560186386108,-1.1495343446731567,-0.5347418785095215,0.9432806372642517,0.4247360825538635,0.32125362753868103,-1.1259764432907104,-0.6660932302474976,1.6920225620269775,1.288597583770752,-0.23106764256954193,-0.5850299596786499,0.05556756630539894,-0.4288457930088043,0.8052547574043274,0.7807786464691162,-0.9189135432243347,0.5858023762702942,-1.4982374906539917,0.025047818198800087,0.3395634591579437,0.9362840056419373,0.20696516335010529,0.5898857116699219,-0.6284275650978088,-0.9307725429534912,-0.9779828786849976,1.0115704536437988,0.3885396122932434,0.42667073011398315,1.2318328619003296,-0.01320462767034769,0.8400567770004272,1.2473742961883545,0.3354467451572418,-0.6811201572418213,-0.4588630199432373,0.5805311799049377,0.3877759277820587,0.6924864649772644,-0.14385411143302917,-0.2301444411277771,0.23078614473342896,0.23360960185527802,0.5540581345558167,-0.8703113198280334,-1.04184091091156,0.34800371527671814,0.38827136158943176,-0.10202133655548096,-0.9201120734214783,-0.1689251810312271,0.2686091661453247,-0.5655487179756165,-0.948295533657074,-1.1642695665359497,0.5301281809806824,-0.9071578979492188,0.10389234870672226,-1.7551305294036865,-0.04466316103935242,0.9497662782669067,-0.3440982699394226,-1.220544457435608,0.9081659913063049,0.07733447849750519,-0.6681808829307556,1.015816330909729,0.35398387908935547,1.4395995140075684,0.4315723180770874,0.032907433807849884,-0.6388556957244873,-0.4201775789260864,0.012790901586413383,-0.18575023114681244,-0.7653532028198242,-0.5468389391899109,0.34463903307914734,0.6352537274360657,-0.3192116320133209,-0.6017687320709229,0.5113953948020935,-0.9118541479110718,1.4798681735992432,-1.3469812870025635,1.1467117071151733,0.3229217827320099,-0.7258500456809998,1.1708276271820068,0.2361561805009842,0.06354445964097977,-1.0319372415542603,-0.1671958565711975,-0.34176650643348694,-0.10318290442228317,-0.9351483583450317,-0.06901759654283524,0.5336984992027283,-0.10366025567054749,-1.6213393211364746,1.2026698589324951,0.10019002109766006,0.21762828528881073,1.237687587738037,-0.5181190967559814,1.160591959953308,0.2768484652042389,-0.9818773865699768,-1.3683899641036987,-0.10628226399421692,1.3333038091659546,-0.6597961187362671,-0.7594686150550842,0.7001867294311523,-0.30730190873146057,0.45561832189559937,-0.21204659342765808,-0.18256640434265137,0.1847938448190689,-0.11126040667295456,1.4746047258377075,0.0003386129392310977,0.3934284746646881,0.18066519498825073,0.6833969354629517,0.24757836759090424,-0.3601394593715668,0.03213350474834442,0.5491400361061096,-0.6350948810577393,-0.2693787217140198,0.8747410178184509,-0.19779330492019653,-0.25020426511764526,0.2087300717830658,-1.1722108125686646,0.24520626664161682,0.3903553783893585,0.3904704749584198,0.4200999140739441,0.2659923732280731,0.08445331454277039,0.3194020688533783,1.3319931030273438,0.9756999015808105,-0.13392093777656555,-0.6771640777587891,-0.925046443939209,-0.1993194818496704,-0.4580388069152832,-1.6341238021850586,0.25908902287483215,-0.8324905633926392,-0.8933704495429993,-0.1388467401266098,-0.7695549726486206,0.05913693457841873,0.5979794859886169,0.7953450679779053,0.733550488948822,-0.6306208968162537,1.1502230167388916,-0.7099112272262573,-0.7172703742980957,0.7225993871688843,0.5064430236816406,1.0359151363372803,0.5954837799072266,0.37919434905052185,0.8424672484397888,0.4537767171859741,-1.0007591247558594,-0.8106836676597595,0.0464400015771389,-0.42217108607292175,1.0492976903915405,1.0345115661621094,-0.08498940616846085,2.014932632446289,0.3234008550643921,1.7975103855133057,1.2989046573638916,0.5939524173736572,-0.26774752140045166,-0.7103256583213806,2.0293478965759277,0.9230212569236755,-1.5402836799621582,-0.7934515476226807,-2.1143124103546143,1.5586929321289062,1.145019292831421,-0.7138569355010986,-0.9416301250457764,0.2789294123649597,0.19045795500278473,-0.47108277678489685,-0.17818574607372284,-0.31257665157318115,0.744606077671051,0.22095578908920288,0.3985201418399811,0.5631963610649109,0.4285713732242584,0.4182876944541931,-0.09236732870340347,0.6724185347557068,0.1614401936531067,-0.5269147753715515,-0.10096678882837296,0.03996870294213295,0.9193798303604126,0.17560337483882904,0.9979720115661621,0.4965650737285614,0.5865314602851868,0.020140066742897034,0.2026212066411972,0.25218871235847473,-0.7201066017150879,-0.2238382250070572,0.04028616100549698,0.40178975462913513,0.974515974521637,0.11165506392717361,-0.5818084478378296,-0.6905498504638672,0.4579082429409027,0.910438597202301,-0.5348654389381409,-0.4253004491329193,1.4505761861801147,0.6369335651397705,0.25061139464378357,-1.155005693435669,-0.10357598960399628,0.6696292757987976,-0.07048546522855759,0.03597807511687279,0.13560965657234192,-0.9040958285331726,-0.16450420022010803,-0.8193466663360596,-0.48842373490333557,-0.0007192128105089068,-0.34484392404556274,0.12028812617063522,-1.186468243598938,0.6373534202575684,-0.3600877523422241,-0.0975765809416771,0.7042983174324036,-0.45114412903785706,0.5837640762329102,-0.17103315889835358,-0.6682056784629822,-0.5030959844589233,0.4131960868835449,-0.006774456240236759,-0.063654325902462,-0.10683141648769379,0.017457636073231697,0.5717144012451172,0.5126687288284302,-0.608092188835144,0.646205484867096,0.5057251453399658,-0.12666957080364227,1.4304535388946533,-0.6881325840950012,0.8157543540000916,0.20503957569599152,-0.283531129360199,0.658298134803772,0.11458597332239151,-0.4377289116382599,-1.082749366760254,0.08858940750360489,-0.49490079283714294,0.694408118724823,-0.8224414587020874,0.08157984167337418,0.2397449016571045,0.06912778317928314,-1.085179328918457,1.2406949996948242,0.10063399374485016,-0.3523218631744385,0.8946586847305298,-0.572303831577301,1.7349554300308228,-0.07326900213956833,0.504664957523346,-1.005123257637024,-0.4955300986766815,0.2882545590400696,-0.3764722943305969,-0.5983347296714783,-0.5498135685920715,0.062035005539655685,0.22555416822433472,-0.6254717111587524,-0.2624703049659729,0.015076848678290844,-0.326682984828949,0.47263750433921814,-0.0675688311457634,1.8946112394332886,-0.18690665066242218,-0.4395824670791626,0.2632780373096466,0.16018085181713104,-0.6338128447532654,-1.3230080604553223,-0.2560274302959442,-0.1335219442844391,-0.5996726155281067,-0.761947512626648,0.15494807064533234,-0.15622255206108093,-0.12198644876480103,-1.2707278728485107,0.7615187168121338,0.04840180277824402,-0.3167861998081207,0.6735871434211731,-1.4880292415618896,0.5318756699562073,0.11559781432151794,-0.16344048082828522,-0.24629580974578857,0.2979702651500702,0.29809775948524475,-0.39279067516326904,0.20261430740356445,0.22710515558719635,0.8549127578735352,0.649728536605835,-1.702210545539856,0.17544223368167877,0.732078492641449,-0.29373088479042053,1.2186967134475708,-0.6229316592216492,-0.04106742516160011,-0.20618504285812378,0.19411569833755493,-0.3095262944698334,-0.1263127475976944,0.3769243061542511,-0.3804708421230316,-0.948346734046936,0.31495606899261475,1.4128071069717407,0.7976231575012207,0.0004078010097146034,-1.7614253759384155,-0.3118469715118408,-0.8559973835945129,-0.4385455548763275,-0.7164638638496399,0.8230334520339966,-0.48249658942222595,0.06328842043876648,-0.22986820340156555,-0.352568119764328,0.24154019355773926,0.3959854245185852,-0.14335079491138458,1.089661717414856,0.5353571772575378,0.8184173107147217,0.13357213139533997,-0.3963485062122345,0.44637757539749146,0.0659615769982338,2.2936272621154785,-2.016873598098755,-0.18937869369983673,-1.2845431566238403,1.1933889389038086,0.11279582977294922,0.4592662453651428,-0.20089873671531677,-0.31113240122795105,0.6579031348228455,-0.5455676317214966,0.7840519547462463,-0.28212404251098633,0.11547104269266129,-0.5677841901779175,-0.6135188341140747,0.3709757328033447,1.1055516004562378,0.19600452482700348,0.3332003355026245,-0.7006345391273499,0.08474621921777725,-0.2538570463657379,-0.1736607402563095,-0.2644059360027313,-0.728131115436554,0.668013870716095,0.1377466320991516,0.3540205955505371,0.2571249008178711,-1.3423740863800049,-0.19076941907405853,-0.24060176312923431,-0.8000944256782532,0.04176170751452446,-0.9122563004493713,-0.1731075793504715,0.08345509320497513,1.3547883033752441,-0.3636963963508606,2.38204026222229,-0.7558090090751648,0.09784366935491562,-1.1426260471343994,-0.25848737359046936,0.9756024479866028,-0.05888921767473221,-0.021987948566675186,0.6018664240837097,0.17082208395004272,-0.32946088910102844,0.5203355550765991,-0.3512393832206726,0.5202579498291016,0.07928256690502167,-0.025266261771321297,0.18064655363559723,0.9725363850593567,-0.27989932894706726,0.8335705995559692,0.7111884951591492,0.664090633392334,0.5503393411636353,0.1654570996761322,0.7046789526939392,-0.8980648517608643,-0.7459853887557983,0.17403718829154968,-0.03686600551009178,-0.6156299710273743,-0.35728129744529724,-0.10804729908704758,-0.2531915605068207,0.6271206736564636,0.12616506218910217,-0.33808639645576477,0.25403285026550293,1.6030696630477905,0.06538642197847366,1.4849801063537598,0.91404128074646,-0.013733995147049427,0.48887404799461365,-0.18432947993278503,0.805854082107544,-0.8879837989807129,-0.5253787040710449,0.47980570793151855,1.379628300666809,0.8487704396247864,-0.0026028850115835667,-1.4827122688293457,0.49342218041419983,-2.147678852081299,0.4581334888935089,-0.7660564184188843,0.1948341578245163,-0.000005120684818393784,0.004047596827149391,0.5663572549819946,-0.4576275050640106,0.4271388053894043,-0.4116746187210083,-0.4490220248699188,0.8560171127319336,-0.21636345982551575,0.7599797248840332,-0.604989767074585,-0.5381078124046326,0.2148343026638031,0.6115987300872803,1.3373494148254395,-1.550817608833313,0.5964884161949158,-0.7290107607841492,1.4558964967727661,1.943900227546692,1.3607197999954224,0.43512365221977234,0.46729835867881775,0.5189188718795776,-0.34615471959114075,0.8562665581703186,-0.15959393978118896,0.09130539745092392,0.48785629868507385,-0.4497295618057251,0.13097073137760162,0.3013298511505127,0.025832153856754303,1.0160715579986572,0.11805098503828049,0.021856393665075302,-0.5831783413887024,0.12653736770153046,-0.11664558202028275,0.3524913787841797,0.36576783657073975,-0.1303718388080597,-0.42450401186943054,-0.4410419762134552,-0.9824759364128113,-0.2994075119495392,-0.43904605507850647,-1.0476781129837036,-0.03443535417318344,-0.9488998055458069,0.24529893696308136,-0.05339932441711426,0.10712994635105133,-0.4175434708595276,-0.426509827375412,0.42998433113098145,1.0428712368011475,-1.639927625656128,-0.1621665209531784,-0.6378427147865295,0.4367489516735077,0.20274755358695984,-0.5916396379470825,-0.5731881260871887,-0.6050888299942017,-0.21103627979755402,-0.4058893024921417,0.5088109374046326,-0.20368419587612152,0.1874329000711441,-1.3721648454666138,-1.1899958848953247,-0.3137238323688507,-0.26377859711647034,-0.9184623956680298,-0.9953418970108032,-0.9528189301490784,-0.8306078314781189,-0.6259392499923706,0.9117108583450317,0.45539554953575134,0.47250300645828247,-0.5608741044998169,0.5092325210571289,1.1800415515899658,0.6166531443595886,1.1672313213348389,-0.7049736976623535,0.1896921694278717,0.2952601909637451,-0.4068107008934021,-0.6459422707557678,-0.27413126826286316,-1.0217604637145996,-0.4420153498649597]},"inputHidden":{"rows":20,"columns":20,"weights":[-1.9427756071090698,0.7866931557655334,-0.5836259722709656,0.8061915636062622,-0.7731780409812927,0.7968264818191528,0.5113778710365295,2.380419969558716,3.6734514236450195,-1.9937355518341064,0.28472355008125305,-0.4597744643688202,1.4353523254394531,1.395281195640564,2.3654990196228027,-0.23956117033958435,-0.4636898338794708,-2.264054536819458,-0.1641618013381958,2.3166286945343018,-0.4735246002674103,-1.5007150173187256,0.13528801500797272,-0.7519221901893616,-0.8566057085990906,-0.12343880534172058,2.155529737472534,1.1920852661132812,0.3628273606300354,1.7868475914001465,-0.9581494331359863,1.415777325630188,-2.3895039558410645,0.6897675395011902,2.555396556854248,0.08085884898900986,0.3330078721046448,-0.977165699005127,0.08540962636470795,-0.301817387342453,-0.9085552096366882,0.5536274909973145,-1.4490530490875244,-1.3219177722930908,1.5515751838684082,-0.7903890609741211,-1.5076433420181274,0.3806542456150055,0.0014037442160770297,-0.7870737314224243,-0.43046581745147705,1.4093788862228394,0.33342763781547546,1.6811586618423462,-0.8630827069282532,-0.968781590461731,-1.4233356714248657,0.23221264779567719,-0.6478844285011292,0.07035675644874573,-1.279883861541748,0.5049245357513428,0.31523236632347107,0.42785564064979553,-1.5004150867462158,-0.045300617814064026,0.06585019081830978,2.9352428913116455,0.7607837915420532,-1.0067616701126099,0.07841882109642029,-1.5360565185546875,0.661784291267395,-0.8632116913795471,1.7810382843017578,-1.6272623538970947,0.030598344281315804,-2.2756569385528564,-0.9549390077590942,-0.7642220854759216,1.2320163249969482,0.6122747659683228,0.252797931432724,-0.5990409851074219,1.651983380317688,-0.48164448142051697,-0.2014085203409195,-0.621672511100769,-0.9661075472831726,-0.9143219590187073,0.4541563391685486,1.5030192136764526,1.1307249069213867,0.23626276850700378,-0.28373005986213684,-0.5143812894821167,-0.2047068178653717,0.3569495677947998,1.0871011018753052,-0.7585629820823669,-0.13929212093353271,0.4591318666934967,0.5480059385299683,0.11313708126544952,-0.6107415556907654,-0.4165070354938507,0.3974705934524536,1.613478422164917,0.023729102686047554,-0.9967427253723145,-0.7571787238121033,-0.3434128761291504,-0.6085349917411804,0.6075623035430908,0.720588207244873,-0.07224123179912567,0.47555407881736755,-1.0674268007278442,-0.15857738256454468,0.6608392000198364,-0.2008722871541977,0.7297905087471008,1.6352492570877075,-1.239951491355896,0.5378469824790955,0.2099050134420395,-0.6162181496620178,0.7793123722076416,-0.8129224181175232,0.5957995057106018,0.702013373374939,-1.4482649564743042,0.7005611062049866,0.1370524913072586,-0.8792538046836853,0.2047801911830902,1.7873990535736084,0.17401497066020966,0.3603017330169678,0.7805594205856323,0.5170854926109314,-0.393728643655777,-0.8293792009353638,-0.046411529183387756,-0.4357307255268097,0.5498597025871277,0.40943223237991333,-1.396702527999878,0.29308271408081055,-1.540360450744629,-0.8061993718147278,-1.6566975116729736,0.14491385221481323,-0.502816915512085,-2.4438889026641846,-0.09522158652544022,-0.6047231554985046,-0.29361194372177124,-0.7202106714248657,-1.5387747287750244,-0.4083873927593231,-2.1151201725006104,0.0918489620089531,-0.746593713760376,-1.4565261602401733,-0.9480160474777222,-1.8138586282730103,-0.011570549570024014,1.4249011278152466,-1.6758222579956055,0.3679760992527008,-3.390902042388916,2.027103900909424,1.6653913259506226,-0.09542069584131241,1.843660831451416,0.3317528963088989,-3.0451414585113525,-0.46192699670791626,0.7010545134544373,-1.4321590662002563,-0.8276952505111694,-0.7836627960205078,0.7188695669174194,-2.2872531414031982,1.6278265714645386,0.9069808125495911,0.4206920266151428,0.7884790301322937,0.7148966193199158,0.019496925175189972,-1.5062028169631958,-0.583503782749176,1.645267367362976,0.2862168848514557,1.9900188446044922,-0.18186631798744202,-0.4310879111289978,-0.8962286114692688,0.7789435386657715,0.789037823677063,2.345554828643799,0.20639853179454803,-2.323528528213501,-1.7889479398727417,0.5169817209243774,-0.20964555442333221,2.2724111080169678,0.7215843796730042,-0.41560032963752747,3.481236457824707,-1.9623056650161743,-0.21585607528686523,0.4258277714252472,-0.5701137185096741,-1.9300057888031006,0.14558790624141693,1.4592911005020142,0.2551823854446411,-0.48273444175720215,-2.0162997245788574,1.057012915611267,-0.7119736671447754,0.8170589804649353,1.3441758155822754,0.9228708148002625,0.1337631791830063,0.25879231095314026,2.664151906967163,-2.8272600173950195,0.24948006868362427,1.8470799922943115,-1.189833402633667,-0.4244191348552704,1.281205177307129,-1.2168560028076172,-0.16491450369358063,-0.9956732392311096,-3.9306509494781494,-1.8381569385528564,0.2684413194656372,-1.3832594156265259,1.2709856033325195,-2.3881258964538574,-2.986616849899292,-1.4156429767608643,-0.4651014506816864,4.1711201667785645,-0.24283961951732635,-0.5589204430580139,-0.8358919024467468,-0.8010494112968445,1.5255533456802368,0.8990966081619263,0.41175729036331177,-0.8402301073074341,-0.1852627843618393,-1.606767177581787,1.2365268468856812,2.8991055488586426,-0.8783093690872192,1.7271634340286255,-0.37118756771087646,-1.7957618236541748,-2.4694058895111084,-1.0343061685562134,1.0335335731506348,2.9306366443634033,0.4598546028137207,-2.9656715393066406,0.8932846784591675,-0.8493995070457458,-0.12655244767665863,1.2936327457427979,0.4580525755882263,-0.9056548476219177,0.3678601384162903,0.7100699543952942,-0.20862042903900146,2.5270771980285645,-0.6257351040840149,0.8011825084686279,-2.1265180110931396,-1.5842721462249756,-0.33147725462913513,-0.39872026443481445,-0.4505669176578522,0.8139700889587402,0.18960541486740112,2.562351703643799,0.802006721496582,0.006450290326029062,2.0186662673950195,-0.04540669918060303,-0.3784802258014679,0.2603547275066376,-1.4935026168823242,1.3970954418182373,0.14186100661754608,0.583713710308075,-1.0396984815597534,-0.8631077408790588,-0.66804039478302,-0.6721814274787903,1.6478749513626099,0.3490540087223053,0.20492258667945862,-0.6665726900100708,1.1328505277633667,1.9735625982284546,-1.4585338830947876,-0.4295271337032318,-1.7660434246063232,0.432824969291687,0.5907005071640015,-0.3835267424583435,-0.7589010000228882,-0.26953181624412537,0.4526362121105194,-0.6292397975921631,0.35930463671684265,1.420196294784546,0.44912105798721313,-0.38620075583457947,1.816563606262207,-0.29626598954200745,-0.13370871543884277,-0.96724534034729,0.2374989092350006,0.08091150969266891,0.2401363104581833,0.8926758170127869,0.1910468190908432,1.3491462469100952,0.4208766222000122,-1.5775891542434692,-0.7285630106925964,-1.3533791303634644,-0.43255501985549927,-0.622649610042572,-1.0549652576446533,-0.01761753112077713,1.0721938610076904,1.6691062450408936,-1.6997700929641724,2.2440743446350098,0.7385008335113525,0.09077692031860352,1.619091272354126,-1.6839954853057861,-0.09682611376047134,0.12394773960113525,0.022088613361120224,0.09450813382863998,-0.18517787754535675,-0.890221118927002,1.1716585159301758,0.25042298436164856,-2.2587177753448486,0.06986048072576523,-0.9675710201263428,-0.5559173822402954,-1.1313122510910034,0.9687760472297668,-0.10284776985645294,3.185678482055664,-1.067400336265564,-1.3769029378890991,2.6570377349853516,-2.720656156539917,1.335410714149475,-2.1752233505249023,-1.0621989965438843,1.506996989250183,2.194044589996338,0.2785336673259735,-0.41558197140693665,-2.9852778911590576,-2.1081736087799072,-0.24022284150123596,0.6575220227241516,2.204328775405884,1.574454665184021,-0.058265749365091324,-1.7994049787521362,0.6495059132575989,0.49306464195251465,2.017073392868042,0.3504035770893097,-0.5164437294006348,1.7457274198532104,-0.7740980982780457,0.7691546678543091,-1.0103546380996704,-0.5670213103294373,-2.4359774589538574,1.1936227083206177,0.29462432861328125,-1.3209060430526733,0.35525789856910706]},"inputBias":{"rows":20,"columns":1,"weights":[0.0011743849609047174,-0.8836069703102112,-0.9193225502967834,-0.5096808075904846,-0.8617911338806152,-0.6089454889297485,-0.8029659986495972,-0.5706561207771301,0.5828178524971008,-0.1526746153831482,-1.1414014101028442,-0.0798286646604538,-0.5484586954116821,-0.6035963296890259,-0.6527106761932373,-1.6950724124908447,-1.4449546337127686,-1.2692056894302368,-0.19140459597110748,-1.066764235496521]},"forgetMatrix":{"rows":20,"columns":37,"weights":[0.16915510594844818,1.5404441356658936,-0.6115709543228149,-0.08679860085248947,-0.7285159826278687,1.0471028089523315,0.4416433274745941,-0.33841320872306824,0.11740321666002274,0.5244628190994263,-0.4442856013774872,-0.10250993072986603,-0.7426018118858337,1.718780755996704,-0.12386450916528702,-0.16691669821739197,1.4180793762207031,0.435232937335968,0.9091865420341492,0.5237047672271729,-0.47821635007858276,-1.8725205659866333,-0.6210612058639526,-0.8534339070320129,0.035256095230579376,0.21963873505592346,0.012669099494814873,0.8048486113548279,0.5870974659919739,0.1884233057498932,-0.24071384966373444,-0.32861173152923584,-0.4720202386379242,0.15187759697437286,0.14190144836902618,0.7414636611938477,0.4154803156852722,0.13724207878112793,-1.0193816423416138,-0.8178796172142029,-0.045887865126132965,1.261814832687378,0.6410507559776306,-0.20948077738285065,-0.983983039855957,-0.5244922041893005,0.18360602855682373,0.7869706153869629,-1.2688484191894531,1.0161054134368896,-0.58289635181427,0.796543538570404,-0.03699444234371185,-0.29543450474739075,0.3872178792953491,-0.6740121245384216,1.7548712491989136,-0.4985239803791046,0.9803245663642883,0.018297147005796432,-0.6252921223640442,0.26758873462677,-0.4282141327857971,0.46314430236816406,0.13548128306865692,-0.3717091679573059,-0.2775638997554779,-0.8493120670318604,0.590399980545044,-1.3980722427368164,0.29172176122665405,-0.9404438138008118,-1.978057622909546,-0.7452276349067688,-0.7008249163627625,-0.39927202463150024,0.5880207419395447,-0.5521121621131897,-1.1503039598464966,-0.41627830266952515,-0.45546045899391174,-0.8952919244766235,-0.5896864533424377,-0.44445115327835083,0.474521666765213,0.21977782249450684,-0.8043875694274902,-0.1957462728023529,0.014991581439971924,-1.1405349969863892,-0.07521496713161469,-0.11860478669404984,-0.5476366877555847,-0.03493192419409752,0.2561294734477997,0.46731603145599365,1.295017957687378,0.07926243543624878,-0.07807669043540955,-1.1918039321899414,0.12940256297588348,0.8979597091674805,-0.1690511405467987,-0.638491153717041,-0.9292985200881958,0.6505920886993408,1.1366639137268066,-0.4649967849254608,-0.8015775680541992,-0.3999645709991455,1.8132473230361938,0.5109354853630066,1.2061001062393188,-0.2726738750934601,1.2504194974899292,-2.4272749423980713,-0.5616114735603333,0.21628278493881226,1.97066330909729,0.5062037706375122,1.0094084739685059,-1.7044106721878052,-0.3920564353466034,-0.7419161796569824,1.4710335731506348,-0.25813910365104675,1.06167733669281,1.0907795429229736,-1.036023736000061,1.5176018476486206,-0.04645374417304993,0.9073464274406433,-0.9093565940856934,-0.3087003231048584,0.7808412313461304,-0.16475489735603333,0.7817400097846985,-0.7133502960205078,0.10205107182264328,0.5442131161689758,-0.6444567441940308,1.3180373907089233,-0.7873731255531311,-0.21863040328025818,0.16835547983646393,1.1378742456436157,1.7210556268692017,-1.9301643371582031,-0.49607908725738525,-0.5850988030433655,1.143426537513733,-0.49880990386009216,-0.24135461449623108,0.28716450929641724,0.31554973125457764,-0.8509035110473633,0.08214876800775528,-0.37891286611557007,0.8493261933326721,1.3504257202148438,0.08592531085014343,-0.455925315618515,0.6227490305900574,-1.460586667060852,-0.04890818148851395,-1.179255723953247,-0.16881459951400757,-1.4638751745224,-0.09954153001308441,0.5414842367172241,0.5532441735267639,-1.250508189201355,-0.7925834059715271,-0.1853707879781723,0.23484787344932556,-0.20079869031906128,0.448286771774292,-0.5478626489639282,-1.1012444496154785,0.8352988958358765,1.2570291757583618,-0.46590107679367065,0.0887722298502922,-0.23580732941627502,0.14067012071609497,-0.4606848955154419,0.9131444692611694,-0.2645576298236847,0.7950093150138855,-1.0872931480407715,0.31182071566581726,-0.1936143934726715,0.784729540348053,-0.38993537425994873,0.1363249272108078,0.023323293775320053,-1.0076626539230347,-1.1318278312683105,0.9440567493438721,-0.40224790573120117,0.43696659803390503,1.0446698665618896,-0.020038161426782608,0.10374990105628967,0.5789400935173035,0.20593182742595673,-0.8100083470344543,-0.4440551996231079,2.545438766479492,-0.04899895563721657,-0.5988464951515198,0.6384742856025696,0.008437120355665684,0.9687907099723816,-0.2313256412744522,-0.2645151913166046,-0.9227287173271179,0.1859031468629837,0.36340436339378357,0.280962198972702,1.0628207921981812,1.1163783073425293,1.6411285400390625,-0.3111754059791565,-1.2572715282440186,0.982669472694397,0.9156516790390015,0.6998071670532227,0.45238885283470154,1.2230291366577148,1.193918228149414,0.7018024921417236,-1.0577095746994019,-0.9468303918838501,-0.7386996150016785,-0.311722069978714,0.3357835114002228,0.4444447159767151,-0.023318147286772728,0.2557222247123718,-0.392245352268219,0.9034805297851562,0.3923603892326355,0.1488521695137024,-1.145695447921753,-0.8375664949417114,1.4727803468704224,1.433457851409912,-0.12927964329719543,-0.7029786109924316,0.10821431130170822,0.13872525095939636,0.9491803050041199,-1.389557957649231,-1.350930094718933,-0.1417056769132614,0.9989774823188782,-0.09570050239562988,0.03637586906552315,0.4187988042831421,0.756590723991394,-0.7306111454963684,0.6271416544914246,-0.8717988133430481,0.4962519109249115,0.8626258969306946,0.29711902141571045,0.7035881876945496,0.49617692828178406,-0.9223777651786804,-0.13389188051223755,-1.135251522064209,0.7381717562675476,0.08866890519857407,0.39415621757507324,0.5986604690551758,-0.06690887361764908,0.8019286394119263,0.04479700326919556,0.6434155702590942,-0.6394782662391663,-0.43754562735557556,-0.7001457214355469,0.32837027311325073,1.1014740467071533,-0.035809390246868134,-0.4841765761375427,0.8903552889823914,0.10651259124279022,0.628925621509552,-0.7631931304931641,0.2276763767004013,-0.2524331212043762,0.8808451294898987,-0.037951286882162094,-0.31068530678749084,-0.006825449410825968,0.3044217526912689,-0.16846230626106262,-0.07356850802898407,-2.46822190284729,-0.1846618503332138,0.47968700528144836,0.7773993611335754,-0.07837463170289993,0.796362042427063,-0.5974786281585693,0.3255196809768677,-2.3241264820098877,0.2297077476978302,0.3160496950149536,0.37097954750061035,0.6351091265678406,-0.6390063166618347,0.6281389594078064,-0.9182837009429932,-0.20652829110622406,-0.425929993391037,-0.7080373764038086,0.4141460955142975,-0.4625748097896576,0.2794034779071808,-0.3997780382633209,-1.066161036491394,0.3256220519542694,0.6092758774757385,1.308902382850647,-0.40799880027770996,-0.7798261046409607,1.2895935773849487,0.33232390880584717,0.13628822565078735,0.5447275042533875,-0.4849995970726013,0.8187353014945984,-0.5223580002784729,-0.22375334799289703,-0.5648509860038757,0.1879478245973587,-0.5682729482650757,-0.15672366321086884,0.034156642854213715,-0.21406778693199158,-0.13697871565818787,0.05866494029760361,0.21995428204536438,0.9005231857299805,0.11809367686510086,0.7294608950614929,1.0142351388931274,1.3065980672836304,0.678272008895874,0.2975468635559082,-0.05455620586872101,-0.8369693160057068,-0.30952516198158264,-0.5078970789909363,1.156814455986023,-0.3115915358066559,0.24856926500797272,-0.034058019518852234,-0.9183422327041626,0.5355609655380249,1.7378472089767456,0.0640573650598526,-0.3635684847831726,2.9225308895111084,-0.49169838428497314,0.1318824738264084,-0.12975715100765228,0.2654123604297638,0.4469339847564697,-0.03826860338449478,1.397275686264038,0.31224286556243896,0.306986927986145,0.9355332255363464,-0.08875015377998352,0.3740478754043579,0.061030808836221695,-0.2981477379798889,-0.11587436497211456,0.8470836877822876,0.4258909523487091,0.0004690417554229498,0.41994115710258484,0.7221147418022156,-0.6219468712806702,0.03515663370490074,0.2670096158981323,0.369853138923645,-0.32083532214164734,0.06590557843446732,1.1331660747528076,-0.6214361786842346,0.34306877851486206,-0.18228624761104584,0.3548511266708374,0.4376201033592224,0.050650037825107574,-0.7447861433029175,-0.4017893373966217,0.025197453796863556,-1.0237650871276855,0.036066897213459015,1.170882225036621,-0.8670225739479065,-0.09332340955734253,0.5876726508140564,0.5379157066345215,0.2520371079444885,-1.4753867387771606,0.6546611785888672,0.600001871585846,0.2558528780937195,0.6592715978622437,0.2827395498752594,-0.48084476590156555,0.8298950791358948,-0.8216249346733093,0.4037310481071472,0.3062654435634613,-0.8218947649002075,0.004104236606508493,-0.418871134519577,0.5682819485664368,-1.179675817489624,1.6103785037994385,-0.8007289171218872,-0.23898543417453766,-1.3272030353546143,-0.7385222911834717,0.19780485332012177,-0.8167650103569031,-0.3015935719013214,-0.3622835874557495,-0.130609929561615,0.24904949963092804,-0.21559801697731018,0.916745662689209,-0.878739595413208,0.9030674695968628,2.0539755821228027,0.7305669784545898,0.4782470762729645,0.12167884409427643,-0.28973057866096497,-0.12581995129585266,0.07370933145284653,0.380397230386734,0.05645964667201042,0.10723210126161575,-0.11735249310731888,0.29488492012023926,-0.5182177424430847,-0.4821370542049408,1.0239640474319458,0.3010765612125397,0.33759257197380066,0.44900816679000854,0.48025187849998474,0.3336836099624634,0.24246692657470703,0.5842068791389465,0.49121353030204773,-0.26498451828956604,-0.10951516032218933,-0.3553093373775482,0.2895321547985077,0.5524718165397644,-0.28971320390701294,0.27797022461891174,-0.2102298140525818,-0.01804557628929615,0.42538169026374817,0.028322622179985046,-0.984835684299469,0.9686019420623779,-0.4053790271282196,-0.2928040027618408,-0.9788439273834229,0.11086903512477875,1.274443507194519,0.4629327952861786,0.6119887232780457,0.7708407640457153,0.7623811364173889,0.3996467590332031,0.09892458468675613,0.31497448682785034,-0.37711894512176514,-0.3235514163970947,0.1063445433974266,-1.283258318901062,1.0464473962783813,0.19415642321109772,-0.43651220202445984,0.4011884331703186,-0.32005420327186584,0.6604255437850952,-0.5021418333053589,0.156464084982872,-1.146378993988037,-0.2038816213607788,-0.07200399041175842,-0.45342376828193665,0.4042300581932068,0.3279539942741394,-0.011719493195414543,-0.058256544172763824,-0.3665349781513214,-0.5741329193115234,0.1427038162946701,0.041841406375169754,-0.047487881034612656,1.0482441186904907,0.8409582376480103,-0.5098243951797485,0.02774772234261036,0.9156955480575562,-0.4535219967365265,0.5962646007537842,-0.777546763420105,0.025890519842505455,0.2865999639034271,1.4301789999008179,0.09130959957838058,1.16532301902771,-1.2629626989364624,-0.4140821099281311,-1.6929447650909424,1.1276092529296875,-0.08654885739088058,0.505472719669342,0.9430210590362549,-0.14740070700645447,0.6060802340507507,0.09526541829109192,1.177032232284546,-0.6471022367477417,-0.7870978116989136,-0.19847901165485382,-0.07929293811321259,0.8337464332580566,-0.5344961881637573,-0.03171463683247566,0.2825024127960205,-0.5302231311798096,1.084562063217163,-1.3457579612731934,-0.475436270236969,0.697269856929779,0.43626296520233154,2.1250789165496826,-0.028644775971770287,-0.37904268503189087,-1.449267864227295,0.5453218817710876,-0.5217050909996033,1.6668822765350342,0.4078405499458313,-0.2951480448246002,-0.9389346837997437,-0.31961503624916077,-0.29726576805114746,0.8036872148513794,-0.4514094591140747,0.707443118095398,-1.2113288640975952,-0.08090013265609741,-0.01651444286108017,-1.32472562789917,0.4115045666694641,-0.7262053489685059,0.5367894172668457,-0.13365484774112701,1.4010571241378784,0.48578161001205444,-1.2842340469360352,0.045843951404094696,-0.5442267656326294,-0.005814297590404749,0.2991342544555664,-1.0548481941223145,-0.8797479271888733,-0.9711630344390869,0.9192642569541931,-0.16142375767230988,0.007227567955851555,-0.6806179285049438,-1.1009727716445923,-0.2915608286857605,-0.3881310820579529,0.7303344011306763,-0.9115194082260132,-0.405335932970047,-0.08504593372344971,0.5135546326637268,-0.603837251663208,-0.13799762725830078,-0.6540002822875977,-0.15662182867527008,0.6084211468696594,-1.0836652517318726,-0.21493695676326752,0.8675034642219543,1.0654823780059814,0.3429548740386963,0.7598339915275574,0.5454837083816528,0.7133319973945618,1.5332847833633423,1.2268016338348389,-0.5683404207229614,-0.045383937656879425,-0.9093230366706848,0.5438389778137207,-0.6865119338035583,-1.0909632444381714,0.36816927790641785,-0.4600847661495209,0.8537495732307434,-0.5791967511177063,0.23711296916007996,-0.1733413189649582,-0.2548264265060425,-0.7119417190551758,0.625227689743042,0.9366683959960938,1.6493362188339233,0.6813246011734009,-1.0944933891296387,0.2599131166934967,-1.7857040166854858,-0.14551500976085663,0.8496144413948059,1.0344784259796143,0.7097017765045166,0.595876157283783,-0.6067238450050354,-0.9558033347129822,-0.1559942662715912,0.8454042673110962,1.0014206171035767,-1.6339126825332642,2.388047933578491,0.4848497807979584,2.5405662059783936,1.5437726974487305,-0.16634072363376617,-0.4754733145236969,-0.383770614862442,-0.409143328666687,1.9389898777008057,-0.16888561844825745,-0.2277398556470871,-1.3002476692199707,-0.1453731209039688,0.13439472019672394,0.471452534198761,-0.9673031568527222,-0.966219961643219,-0.9403080344200134,-0.42887526750564575,0.448860228061676,-0.044190894812345505,-0.2676287591457367,0.8274135589599609,-0.06802937388420105,0.7770909070968628,-1.602725863456726,0.33213481307029724,0.7049087285995483,0.6366302967071533,0.8018530607223511,-0.15311211347579956,-1.0730644464492798,0.6915920376777649,-1.8147563934326172,0.7516544461250305,-0.25724172592163086,0.13948678970336914,0.786737322807312,-0.002879596780985594,1.0648735761642456,-0.7666894197463989,0.442635715007782,-0.7565070986747742,-0.09303006529808044,1.0569490194320679,-0.003819710575044155,0.56842440366745,-0.06503163278102875,-0.9515513181686401,0.3910595178604126,0.2974165081977844,0.9033149480819702,-0.8952597379684448,0.4883984923362732,-0.21667706966400146,1.0769649744033813,1.1960989236831665,1.1259427070617676,0.5926464200019836,0.760833740234375,-0.30830591917037964,0.3054333031177521,-1.3934539556503296,-0.43240591883659363,0.3834022879600525,0.744632363319397,0.2669774293899536,0.32572218775749207,-0.43272337317466736,-0.8770567774772644,-0.6552019119262695,0.792258620262146,0.0878816694021225,-0.18964755535125732,1.2522087097167969,0.4491906464099884,0.6452924013137817,0.5568190813064575,0.26004791259765625,-0.8671377301216125,-0.3083438277244568,0.7913662791252136,0.744141697883606,0.06278602033853531,0.14668144285678864,-0.8378362655639648,0.097915880382061,-0.16519220173358917,0.9361812472343445,-0.5175639390945435,-0.18916459381580353,0.2665204405784607,0.14680376648902893,0.8579050302505493,0.3565656542778015]},"forgetHidden":{"rows":20,"columns":20,"weights":[-0.4993327260017395,1.9196077585220337,-0.16410624980926514,-0.9028501510620117,2.374854803085327,0.4247075319290161,-0.7982780337333679,-0.5758009552955627,0.75702303647995,-1.159990906715393,0.8519931435585022,-0.6133863925933838,-0.18853460252285004,-0.13374179601669312,-1.7156726121902466,-2.95647931098938,-0.3697097599506378,1.3492543697357178,-0.1512211263179779,-1.4565629959106445,0.14620164036750793,-0.5354750752449036,-0.5774481892585754,-0.011145692318677902,1.0220142602920532,-0.24024701118469238,-1.3840734958648682,-0.31042635440826416,-0.2645420432090759,0.16183002293109894,-1.0326147079467773,0.5396242737770081,1.943837285041809,0.04777941480278969,-0.340511679649353,0.553956151008606,-0.5812182426452637,0.6275582909584045,0.22888417541980743,-1.2562150955200195,-1.4228636026382446,-0.4661904573440552,-0.4036950170993805,-0.48430103063583374,0.11638592928647995,-0.4957580268383026,-0.6908050775527954,-0.018064823001623154,-0.7826372981071472,0.22967807948589325,0.2872820794582367,-0.7160817384719849,0.06781484931707382,0.08071600645780563,-0.5121527314186096,0.04012518376111984,-0.36090150475502014,0.5716553330421448,-0.2960684895515442,-0.3518253266811371,1.567415475845337,0.16202972829341888,0.340030699968338,-0.5102850794792175,0.15102943778038025,-0.20143964886665344,0.6002734899520874,1.044806718826294,-1.273677110671997,0.05069993808865547,-0.3561028838157654,-0.4283852279186249,0.6972455382347107,0.6219164133071899,-0.2535339593887329,-0.4560762047767639,-0.05671069025993347,0.2824249267578125,2.097285747528076,-1.7052985429763794,-0.2553139626979828,1.0526463985443115,0.6949096322059631,0.6499080061912537,-0.1727142184972763,-0.11479949951171875,0.30284327268600464,-0.08767010271549225,-0.13088510930538177,-0.3412669897079468,-0.8563214540481567,-0.7316057682037354,-0.07048412412405014,-0.5845999121665955,1.2034801244735718,-0.07372613996267319,0.7510993480682373,-1.218113899230957,-0.5774638056755066,0.8304609060287476,0.6095210313796997,0.9093306660652161,0.3355192244052887,0.10420346260070801,1.0313270092010498,-0.41878312826156616,0.6563113927841187,0.08123773336410522,0.06389936804771423,0.5426192879676819,-0.6209326386451721,-0.3746984302997589,0.27922186255455017,0.4103732407093048,0.3287380039691925,-1.0508253574371338,0.4797758162021637,-0.26844078302383423,0.26463285088539124,-0.3801822066307068,0.5438244342803955,0.7756167650222778,0.19273784756660461,0.18212854862213135,-0.10352826863527298,0.3844473361968994,1.0738826990127563,-0.04723336175084114,-0.20800471305847168,1.306254267692566,0.4738866090774536,-0.08026100695133209,-0.6365691423416138,0.26141414046287537,0.6890721321105957,-0.1594175547361374,0.31426680088043213,0.18309150636196136,0.5513615012168884,0.5183132290840149,0.7892287373542786,0.4201321601867676,-1.041976809501648,-1.0925405025482178,-0.9431867003440857,-1.004001498222351,-0.45675283670425415,1.9125365018844604,-0.6889820098876953,-1.2460452318191528,-1.784315586090088,0.6013782024383545,1.0770301818847656,-0.34798285365104675,-0.6015214920043945,0.6141093373298645,-1.220321774482727,0.4253285229206085,0.45710667967796326,0.6541804075241089,0.5373687148094177,-0.3805916905403137,0.15528374910354614,0.2465778887271881,-0.5547621250152588,-0.8972507119178772,-0.16949690878391266,0.27461689710617065,-0.4564322233200073,-1.6336803436279297,-1.4540632963180542,-0.3407207429409027,0.12039198726415634,0.04306991770863533,0.9172247648239136,0.912006676197052,0.19701142609119415,-1.09938645362854,0.32654574513435364,0.4509587287902832,2.8835153579711914,1.392620325088501,-1.255128264427185,-1.789003610610962,0.23888391256332397,-2.4247145652770996,-1.8543635606765747,0.4503919184207916,-2.307971954345703,0.5939286351203918,0.32639360427856445,-0.012715996243059635,1.6745479106903076,1.8903201818466187,-2.8861145973205566,1.4269073009490967,-0.8614598512649536,1.1291788816452026,1.1235411167144775,-0.20168083906173706,1.7290834188461304,-2.3511366844177246,-1.7873780727386475,-2.447601556777954,-0.25363510847091675,-1.4483052492141724,-1.2279393672943115,1.4164540767669678,-2.011049747467041,0.513100802898407,-2.812079668045044,2.0119404792785645,1.3856395483016968,1.5421720743179321,-0.8119868636131287,2.5950255393981934,-2.500542163848877,0.8778253197669983,1.4191761016845703,-0.46971747279167175,0.1536967009305954,0.7075862288475037,0.188215970993042,-0.5080194473266602,0.33783209323883057,-0.11378757655620575,-0.6555812358856201,0.7483676671981812,-0.6127084493637085,-0.2715380787849426,0.807462751865387,-0.6415060758590698,0.9425777196884155,-0.29817473888397217,-0.09493651241064072,-1.4863725900650024,-0.15016138553619385,-0.01589396223425865,0.6189314723014832,-0.08613312244415283,2.0689096450805664,0.06400701403617859,-1.6185599565505981,-1.1509313583374023,0.3508254289627075,-0.5667725205421448,-0.16498148441314697,0.25782346725463867,-2.3506991863250732,1.676060438156128,-0.9673507213592529,1.0585722923278809,1.3736592531204224,1.4751943349838257,-1.1753888130187988,0.9090036749839783,-1.6040040254592896,1.5628647804260254,1.9219913482666016,-0.16363608837127686,1.5670721530914307,-2.162753105163574,-0.6373138427734375,-0.24251343309879303,1.0846740007400513,-0.2886946499347687,0.5808707475662231,-0.20378175377845764,-1.1326394081115723,-0.24984373152256012,-2.4388835430145264,0.2826040983200073,1.4873414039611816,1.018455147743225,0.7762099504470825,-0.21562567353248596,-0.707199215888977,0.11106853187084198,0.9564359784126282,-1.636752724647522,-1.8439630270004272,-0.9485552310943604,0.36618930101394653,-0.24913078546524048,-0.753063440322876,0.20947957038879395,0.9479994177818298,-0.5442649126052856,0.5715400576591492,0.097471684217453,-0.8631914258003235,-0.29632943868637085,-2.0945403575897217,0.21793437004089355,1.6175434589385986,-0.5079903602600098,0.6710299253463745,-0.9742937088012695,-0.5402820110321045,0.04460986331105232,0.6948814988136292,-1.2514616250991821,0.7144596576690674,0.7538822889328003,1.2896188497543335,0.2575032114982605,-3.557058572769165,-0.6283198595046997,-0.36583390831947327,-0.6201222538948059,-0.632108747959137,0.9225040078163147,0.4084470570087433,1.1987184286117554,0.7576428055763245,0.5269986391067505,-0.9356745481491089,-2.041408061981201,0.49752694368362427,-1.322812557220459,-0.19584724307060242,0.23699693381786346,0.01693347841501236,-0.12483125180006027,-0.14999635517597198,-0.1394035518169403,0.02412910759449005,0.38070839643478394,-0.03352082148194313,0.6075443029403687,-0.12394006550312042,-0.6462567448616028,-0.019024735316634178,0.00001571721804793924,0.33183351159095764,-0.8368691205978394,0.07942264527082443,-0.2619212567806244,-0.03956257551908493,-0.029878739267587662,0.1159309446811676,-1.8918695449829102,1.1425693035125732,-0.6814488172531128,-0.059092968702316284,-1.720035433769226,0.71372389793396,2.2581264972686768,0.262800931930542,-1.065509557723999,-1.9989731311798096,-0.5701949596405029,-0.060872554779052734,-1.2711728811264038,1.0898936986923218,-0.17971166968345642,0.4542377293109894,-1.041164517402649,-0.6235530376434326,-0.4599665403366089,1.7685489654541016,-0.6444412469863892,0.8439627289772034,-0.0031470831017941236,0.19172616302967072,0.5023943185806274,-0.8014730215072632,0.08873505890369415,-0.40483927726745605,-0.635230541229248,-0.9328382015228271,-1.1932036876678467,1.0443875789642334,0.6388790607452393,0.9640990495681763,0.5495103001594543,0.7929283380508423,-1.1363024711608887,1.0273207426071167,-2.324249744415283,-1.5326275825500488,0.7722110152244568,0.6342353224754333,1.2235102653503418,-0.7864505648612976,-0.18047243356704712,0.43426787853240967,0.1069696843624115,1.847425937652588,-2.0466341972351074,0.2720020115375519,-0.7455803155899048,-0.9394478797912598,-0.4462549388408661,0.9369134902954102,-0.44121286273002625,0.5221917629241943,-1.0800937414169312,-1.8634854555130005,0.6553682684898376]},"forgetBias":{"rows":20,"columns":1,"weights":[0,0,0,0,0,0,0,0,0,0,0,0,0,0,0,0,0,0,0,0]},"outputMatrix":{"rows":20,"columns":37,"weights":[-0.022399360314011574,0.6883012652397156,0.22586721181869507,0.01963755674660206,1.7620846033096313,1.0163164138793945,-0.45952773094177246,-0.808506190776825,-0.49255529046058655,0.37673699855804443,0.577491283416748,0.11177951097488403,0.00624536257237196,0.7276108264923096,1.2221003770828247,-0.22400426864624023,0.503716766834259,-0.06473587453365326,0.5744439959526062,0.40965184569358826,0.7234867215156555,-0.8281073570251465,-0.11094477772712708,-0.6979454159736633,-0.18160682916641235,-0.26389142870903015,-1.1727818250656128,0.4135560095310211,-0.8032084703445435,0.34686174988746643,-0.6140795350074768,0.4957846403121948,-0.44626882672309875,-0.741892397403717,-0.7169419527053833,0.39583301544189453,-0.5479328632354736,-0.024416184052824974,-0.6490647792816162,1.1630507707595825,-0.22307918965816498,1.4988917112350464,0.4887593984603882,0.49817201495170593,-0.8286303281784058,0.5415166020393372,-0.6654617786407471,0.3628312349319458,0.20548303425312042,0.8459684252738953,-0.7887410521507263,0.3645237982273102,-0.4875137507915497,-1.443340539932251,0.5256565809249878,-0.5576255917549133,-0.10059572011232376,0.6912890672683716,0.8362768888473511,0.11899368464946747,-2.373109817504883,-0.5515860319137573,0.28729650378227234,-0.9054242968559265,-0.12072823196649551,-2.052940845489502,-0.32735422253608704,-0.353870153427124,0.907477080821991,0.6307704448699951,-0.14987070858478546,0.46026676893234253,-0.8805970549583435,-0.7814368009567261,-1.1812710762023926,0.6773644089698792,0.058256346732378006,0.2508344054222107,-0.19286970794200897,-0.0029521214310079813,0.5933183431625366,0.927519679069519,0.12128406018018723,0.5580986142158508,-1.163362979888916,0.7710732221603394,-1.5243934392929077,0.5850806832313538,-0.6003779768943787,-0.021412495523691177,0.468237966299057,-0.99981689453125,0.311248779296875,-1.2083604335784912,0.10035808384418488,-0.7137489914894104,-0.46681156754493713,0.5506109595298767,-1.1620421409606934,0.48424041271209717,-0.017915260046720505,-0.0022904775105416775,0.6460854411125183,0.11885121464729309,0.4937897324562073,-0.9257163405418396,0.6882518529891968,1.0515072345733643,0.627219557762146,1.466073989868164,0.7928206920623779,0.7150704264640808,0.7615591287612915,-0.19203932583332062,1.9455245733261108,-1.2593919038772583,0.6793675422668457,1.529465675354004,0.7186524271965027,2.051675796508789,0.28548187017440796,-1.2666693925857544,-0.16249270737171173,-1.5541936159133911,0.6374553442001343,-0.13581512868404388,0.6110187768936157,0.6742057204246521,0.9967072010040283,0.19763632118701935,0.12861286103725433,0.44613876938819885,-0.5803927779197693,0.13765637576580048,0.5217097401618958,1.2495814561843872,1.5705349445343018,-0.08506212383508682,-1.1737858057022095,0.28278103470802307,0.7539056539535522,0.7138908505439758,-1.2021948099136353,0.173235684633255,-1.534757137298584,1.9840365648269653,-0.5198041796684265,0.47313597798347473,-1.2021490335464478,0.0177739430218935,1.0809634923934937,-0.3683987259864807,0.34907692670822144,-0.28503888845443726,-0.32269084453582764,-0.9724316000938416,-0.8293949961662292,-1.0169520378112793,1.3254284858703613,-0.0057430993765592575,0.6870852708816528,0.044856756925582886,-0.40707746148109436,-1.248775839805603,0.11867688596248627,-1.5167253017425537,0.14784975349903107,-1.331384539604187,-0.8018049001693726,0.14277313649654388,0.9258055686950684,1.2593796253204346,-1.408304214477539,-1.316755771636963,1.543682336807251,0.004004431888461113,-0.10030708461999893,-1.5499645471572876,-1.0203956365585327,0.9361066222190857,1.352821707725525,-0.896253228187561,-0.4129200875759125,0.6391386389732361,0.10591825097799301,0.10416614264249802,0.3003314733505249,0.28687432408332825,0.27525171637535095,-3.0935990810394287,-0.929078221321106,0.16221876442432404,1.5286306142807007,0.1309923231601715,0.7659757137298584,-0.7651827335357666,-0.18345887959003448,-1.856003761291504,0.3321324586868286,-0.3030305504798889,-0.17924745380878448,1.071732997894287,-1.1023627519607544,1.0263797044754028,-0.008848465047776699,-0.6071509122848511,-0.419575035572052,-0.6009569764137268,2.72418475151062,-0.038229964673519135,0.07926307618618011,0.4704799950122833,-0.6184405088424683,0.6163114905357361,-0.052042119204998016,0.910994827747345,-1.1019865274429321,-0.8061959147453308,0.4058528244495392,0.7698674201965332,1.4443955421447754,0.057684276252985,1.0624616146087646,0.9367631077766418,-0.3801630437374115,0.5169252157211304,-0.06135115027427673,0.5334027409553528,0.5160754919052124,1.3854644298553467,-0.38614171743392944,1.6823731660842896,-0.27118629217147827,-0.5995456576347351,-1.5953495502471924,1.0613740682601929,0.5972342491149902,-0.6819310188293457,0.9849545359611511,-0.807124674320221,1.6298350095748901,-0.0475478358566761,0.3911891579627991,-0.9685788154602051,-0.6689872741699219,0.27710607647895813,0.5137348175048828,0.36981162428855896,-0.7452412843704224,-0.6630508899688721,0.7083253860473633,-0.5575615763664246,-0.0923999473452568,-0.22265470027923584,-0.5502980947494507,-0.4398672878742218,0.010695705190300941,1.39707350730896,-0.7776503562927246,-0.25352048873901367,0.8983227014541626,-0.7098904252052307,-0.27569061517715454,-1.7726048231124878,0.3447018563747406,0.03214288875460625,-0.926204264163971,-0.28173357248306274,-0.6765622496604919,0.8817742466926575,0.769149661064148,-2.3106937408447266,1.2351197004318237,-0.5402575731277466,-0.24368000030517578,1.6355215311050415,-0.026744836941361427,1.004469394683838,0.772038996219635,-0.9564918279647827,-1.146981120109558,-0.07734987139701843,1.4935619831085205,-0.4234558939933777,0.31635403633117676,0.7027722001075745,0.21593999862670898,1.2393139600753784,0.7244566082954407,-0.38471224904060364,-0.1794234812259674,-0.2174178957939148,0.3579789698123932,-0.6881284117698669,-0.47316697239875793,1.3772019147872925,0.21698378026485443,0.2106449455022812,0.06222052127122879,0.07577746361494064,0.4222031533718109,-0.7261021733283997,0.3924242854118347,0.7254314422607422,0.11524201929569244,-1.3430382013320923,-0.16947831213474274,-0.03644169121980667,-0.10656659305095673,0.1813809871673584,-0.14578549563884735,0.25666728615760803,0.3935813009738922,0.31667962670326233,0.13233792781829834,0.1608673334121704,0.579140305519104,-0.08429507911205292,-0.5041863322257996,0.2938418388366699,-0.11207427084445953,0.4762555658817291,-1.1238049268722534,0.2854875922203064,-0.64527428150177,0.33842989802360535,-0.23019352555274963,-0.9461337327957153,0.2578374445438385,-0.19923490285873413,0.768521249294281,0.6602230668067932,0.7240157723426819,1.6524540185928345,0.20314818620681763,-2.2501516342163086,0.8525463342666626,-0.10165701061487198,0.12440435588359833,-0.5992756485939026,1.54949951171875,0.7267162203788757,-0.3935055136680603,-2.1966114044189453,-1.089434027671814,-0.6131682991981506,0.47967129945755005,-0.1526496708393097,1.29258131980896,0.9370892643928528,2.5296518802642822,0.9305163621902466,1.8217984437942505,1.2894092798233032,-0.2777247428894043,-1.719443678855896,0.6208686232566833,2.566857099533081,1.7838853597640991,-1.8679170608520508,-0.0030229713302105665,-1.5349891185760498,1.106198787689209,1.567226529121399,-2.253371000289917,-2.0186755657196045,0.6229967474937439,1.366733431816101,0.5599502325057983,0.619487464427948,0.4230678975582123,0.8668349385261536,0.28846627473831177,0.3995855450630188,1.3869726657867432,1.9453827142715454,1.1064560413360596,-0.05709667131304741,1.4506409168243408,0.4967001676559448,0.11855010688304901,-0.07712488621473312,0.4433005154132843,0.6450688242912292,0.38354936242103577,0.3119392693042755,0.3751884996891022,0.4509895145893097,0.5512775778770447,0.4692528545856476,-0.2552706003189087,-0.8731940984725952,-0.3440214693546295,-0.5678674578666687,0.6506068706512451,0.05788421630859375,-0.15613290667533875,-1.0922080278396606,-2.0083203315734863,0.3827141523361206,-0.844829797744751,0.49238792061805725,-0.32482245564460754,0.0013956372858956456,1.5823057889938354,-0.73935866355896,-1.7905242443084717,-0.46639907360076904,0.924493670463562,-0.12969622015953064,-0.06222383677959442,-0.0251004695892334,1.1325936317443848,0.05331045389175415,0.7942367196083069,-0.14034463465213776,0.8723823428153992,-0.19886411726474762,-0.28399917483329773,-1.2960963249206543,0.9582469463348389,-0.3948308229446411,0.8729955554008484,0.7853018641471863,1.0894906520843506,0.553553581237793,1.0328444242477417,0.49172914028167725,-0.9773386120796204,-1.36989426612854,-0.2795308232307434,0.4024128317832947,-0.16705510020256042,0.3543042838573456,-0.7033921480178833,0.34923800826072693,0.9864732623100281,0.5474653840065002,-0.8652299642562866,-1.2010220289230347,1.8361831903457642,0.2128993570804596,0.15415780246257782,0.2458060383796692,0.46166104078292847,0.9529795050621033,-1.0961594581604004,-0.2975536286830902,-2.005574941635132,-0.21090039610862732,0.07367153465747833,0.8675610423088074,-0.5765656232833862,0.7236651182174683,-0.4419427514076233,0.25709664821624756,-1.1093472242355347,1.25680410861969,-0.04575575888156891,0.26946401596069336,1.8890256881713867,-0.1265312135219574,2.1506664752960205,0.5217986702919006,-0.11462155729532242,-1.1966363191604614,-0.7906485199928284,0.04063192009925842,0.33816900849342346,0.3565290570259094,-0.7430979609489441,-0.18242712318897247,0.9393735527992249,0.2957240045070648,1.184363603591919,-0.3662318289279938,-1.5774272680282593,1.2939482927322388,-0.7805400490760803,1.234350562095642,-0.9671395421028137,0.3164103627204895,0.5683791041374207,-0.27075883746147156,-0.40303388237953186,-1.4877917766571045,0.024745380505919456,0.21352314949035645,-0.4658906161785126,0.3098326623439789,-0.011687077581882477,0.1299726814031601,0.2955254018306732,-1.9000955820083618,0.6472333669662476,0.08478051424026489,0.11651822179555893,0.22494617104530334,0.2234174907207489,0.5281156897544861,0.36869439482688904,0.7465175986289978,-0.6524701714515686,-0.20809893310070038,-0.8669069409370422,-0.5501803755760193,0.6038931012153625,-0.7244510054588318,0.1744673103094101,0.624068558216095,0.19842089712619781,-0.23430992662906647,-0.032903771847486496,-0.7215539216995239,0.8179563879966736,-0.22066499292850494,-0.4251318573951721,-0.2759283483028412,-0.20136253535747528,0.47103914618492126,-0.7794605493545532,0.40281784534454346,-1.2163952589035034,-0.8994657397270203,-0.02913861721754074,1.4142122268676758,0.5833686590194702,-1.0442485809326172,-1.629003643989563,0.35651057958602905,-1.439420461654663,1.2351402044296265,-1.3341155052185059,0.6191177368164062,0.4274161458015442,0.2321709245443344,0.672467052936554,0.2182372510433197,0.10236973315477371,-0.44740819931030273,-0.3003447353839874,1.21299409866333,0.20772211253643036,0.32160326838493347,0.12980321049690247,-0.3710755705833435,0.6780378222465515,0.16947217285633087,2.1592016220092773,-2.5467469692230225,0.10749007016420364,-1.2871407270431519,1.0036414861679077,1.0566534996032715,1.4419115781784058,-0.40104347467422485,-0.6226839423179626,-0.04089553654193878,-0.215652197599411,0.8297846913337708,0.9881337285041809,-0.2853373885154724,-1.190712332725525,-0.294937402009964,-0.2668853998184204,0.5836621522903442,0.4513809084892273,-0.0905894935131073,-0.8344665169715881,-0.1856052577495575,0.27094513177871704,-0.8712565302848816,0.21446971595287323,-1.0028586387634277,0.26259562373161316,-0.09397680312395096,0.5445196032524109,-0.617141842842102,-2.491903066635132,-0.5087101459503174,0.0654008612036705,-0.8592746257781982,0.6396257281303406,-0.4163658320903778,0.47108015418052673,-0.21701930463314056,0.2546943724155426,-1.2098369598388672,1.6420643329620361,-0.45046648383140564,-0.8447808623313904,-0.702598512172699,-1.4332518577575684,0.06633485853672028,0.22667469084262848,-0.5230464339256287,0.9280939102172852,0.00443896371871233,-0.5395175814628601,0.9301670789718628,-0.036777399480342865,0.525558352470398,-0.6570736765861511,0.1314844787120819,-0.5408920049667358,0.14855483174324036,-0.42023953795433044,0.21663425862789154,-0.2004852592945099,0.004293977748602629,-0.49868640303611755,-1.1575731039047241,-0.09326430410146713,-0.17861509323120117,-0.46171924471855164,1.223578929901123,-0.6719275712966919,-0.395687460899353,0.7561051845550537,-0.1563531905412674,0.8451036214828491,0.0894080325961113,0.35071703791618347,-0.4473910629749298,0.3453778028488159,1.7270417213439941,0.6182077527046204,0.47831591963768005,0.9388894438743591,1.2656891345977783,-0.4058656692504883,-1.245976448059082,0.5584492683410645,-0.5618968605995178,-0.25582727789878845,0.14040988683700562,0.5561429262161255,0.5896360874176025,0.5693678855895996,-0.967325747013092,-0.873760998249054,-0.9258625507354736,-0.01953851245343685,0.5421400666236877,0.09706611186265945,0.8082938194274902,0.5625331997871399,0.9943546056747437,1.1104656457901,1.024661660194397,0.2683298885822296,-0.18382829427719116,-0.43451225757598877,0.8186914324760437,0.7988052368164062,-1.8168070316314697,0.5042932629585266,-0.6814454197883606,0.5749759078025818,0.6391079425811768,-1.1182489395141602,-1.2412327527999878,-0.2636655867099762,-0.15505293011665344,1.519858479499817,-0.09893403947353363,0.9174524545669556,1.0413604974746704,-0.2583613991737366,0.06828990578651428,-0.5941579937934875,0.14212043583393097,1.0216395854949951,-0.587632954120636,0.19778116047382355,0.6411229968070984,-0.43670016527175903,-0.06753837317228317,-0.02119240164756775,1.0453089475631714,0.6178343296051025,-0.110212542116642,1.3736616373062134,-0.3437475562095642,0.6489117741584778,-0.03229012340307236,0.1419062316417694,-1.1432427167892456,-0.044492922723293304,-0.9502947926521301,0.1966519057750702,1.4946967363357544,-0.9065779447555542,0.5877858996391296,0.13920551538467407,0.1432114690542221,0.7214880585670471,0.24326777458190918,-0.6723872423171997,-0.2799425721168518,-0.3474401831626892,0.8297539353370667,-1.6131962537765503,0.5571039319038391,0.7480246424674988,0.37178581953048706,-0.2917303144931793,-0.7877105474472046,0.6229051947593689,-0.4183880090713501,-1.5523576736450195,-0.6585318446159363,0.135618656873703,0.644041121006012,0.14921708405017853,-1.759737253189087,0.8526843190193176,0.6242281794548035,-0.7776277661323547,1.0087497234344482,-0.4969753324985504,0.43522340059280396,-0.03820611536502838,0.1462557464838028,-0.7106415033340454,0.6227243542671204,-1.312676191329956,-0.3714541494846344,0.5958002805709839,-1.0258686542510986,0.7130541801452637,0.8708412051200867,-0.03008117899298668,-1.6502841711044312,0.9449342489242554,-0.7043130993843079,-0.3531075716018677,-1.1358169317245483,-0.36198174953460693,-0.27219799160957336]},"outputHidden":{"rows":20,"columns":20,"weights":[-0.634458601474762,-0.07644622027873993,-1.07033109664917,-1.7447017431259155,-1.400955080986023,-1.3332082033157349,-1.4466307163238525,2.1734578609466553,0.7914890646934509,-2.6899263858795166,-0.6368193030357361,-0.32862597703933716,2.3240416049957275,0.8888577818870544,-0.8194564580917358,1.035711646080017,-0.7989156246185303,-0.8316556811332703,0.599806010723114,1.4594240188598633,0.6752137541770935,-0.6690081357955933,-1.9781677722930908,-0.08401501178741455,-0.6073861718177795,-0.41728824377059937,-1.403189778327942,0.9659332036972046,-0.7230855226516724,1.9096375703811646,0.7519523501396179,2.0651283264160156,0.41588109731674194,1.3964916467666626,-1.1685787439346313,0.9748398065567017,-1.5603655576705933,1.8787914514541626,0.5544134974479675,0.6090841293334961,-0.35293686389923096,0.11568533629179001,0.298867791891098,-0.13611620664596558,1.1441727876663208,0.4631582200527191,0.08080514520406723,-1.0671682357788086,1.5448477268218994,0.405938982963562,1.0479284524917603,-0.9624132513999939,-1.2188868522644043,-0.8425032496452332,1.3708693981170654,-1.0390729904174805,0.5400711297988892,-1.3496402502059937,-1.013646125793457,0.039130713790655136,-0.5576990842819214,-0.04705207422375679,1.4349908828735352,0.18531344830989838,-0.7513115406036377,0.028303904458880424,0.8702987432479858,2.22947359085083,0.21660123765468597,-1.3154631853103638,-0.2674352824687958,-1.9137117862701416,0.5780351161956787,-0.6944040656089783,2.975799083709717,-0.6701622009277344,1.3604861497879028,-3.0008623600006104,0.20589791238307953,-0.9086706042289734,-2.593592405319214,0.7404502630233765,0.10295441746711731,2.421196222305298,-0.3534977436065674,2.631822347640991,-0.32321301102638245,0.29680031538009644,1.4755209684371948,0.39127182960510254,1.7537776231765747,0.25672781467437744,-1.378684163093567,-1.9250998497009277,0.25674906373023987,0.02646280638873577,0.6276179552078247,0.4273514449596405,-3.174139976501465,0.41142594814300537,0.06047172471880913,0.9949321746826172,0.6768051385879517,0.31325265765190125,-0.7563210129737854,-0.5232027769088745,1.0908887386322021,0.9217684864997864,0.21503734588623047,-0.25431761145591736,-0.5130749940872192,-0.45621058344841003,-0.1971995085477829,0.40314769744873047,0.5111026763916016,0.04195185750722885,0.7704868316650391,-0.8507075905799866,-0.306345134973526,-0.5992498993873596,0.25953271985054016,0.17590869963169098,0.7140070199966431,-0.0324082188308239,0.6696842312812805,0.9372174739837646,0.6302593350410461,-1.5651307106018066,0.5696015357971191,1.1134041547775269,-0.22108334302902222,0.26652711629867554,-1.5316810607910156,0.8213856220245361,1.1025487184524536,0.3527553677558899,0.6227192878723145,-0.05817689746618271,-0.6001543998718262,-0.5150810480117798,0.25614863634109497,-0.9684701561927795,-0.845000147819519,-0.8371310830116272,-1.5673410892486572,-1.0482194423675537,0.02253936044871807,1.3035752773284912,-0.28996995091438293,-1.9006963968276978,-1.2360762357711792,-0.7450510263442993,0.7071793675422668,-0.8009440302848816,-0.7458145022392273,0.4935706555843353,-0.7814823389053345,-0.07691320776939392,-0.7157804369926453,0.26527732610702515,-0.36607176065444946,-1.683289647102356,-1.7672264575958252,-1.0707216262817383,-2.301321506500244,-2.6580920219421387,-2.130739212036133,1.1172367334365845,1.3212229013442993,-3.99715518951416,-0.8478742837905884,0.0774807557463646,-0.004075378179550171,1.314559817314148,0.11433562636375427,1.5866918563842773,-1.3200446367263794,-1.8942986726760864,-0.5764524340629578,0.29482534527778625,0.23980431258678436,-0.35058918595314026,1.2866618633270264,0.4009575843811035,-1.0839099884033203,0.43980616331100464,1.2839206457138062,0.40562704205513,-0.36276623606681824,-0.6993605494499207,0.3867185413837433,-0.5217185616493225,-0.7535602450370789,-0.5983708500862122,0.5344109535217285,0.10985226929187775,0.5006932020187378,-0.01136152446269989,0.6782378554344177,0.5339806079864502,2.4794487953186035,0.5407370924949646,0.14606808125972748,0.3657180666923523,0.20679503679275513,1.9147238731384277,-0.7505733370780945,-0.36529359221458435,-2.549264907836914,-1.0373033285140991,-0.38614028692245483,-1.9050776958465576,3.227776527404785,-1.3082821369171143,-0.9692556858062744,0.7254794836044312,0.2846068739891052,0.07293972373008728,1.2518103122711182,-0.9403619766235352,-0.7699627876281738,0.8343501687049866,0.03061031363904476,0.4246589243412018,0.750162661075592,0.7727453708648682,0.015643680468201637,-1.207810640335083,0.9439571499824524,0.005598536226898432,0.6220592856407166,-0.18722239136695862,0.5984915494918823,0.006709496956318617,0.696357786655426,-1.0859086513519287,0.4145677387714386,-0.6082136034965515,-0.5229156017303467,-0.20001468062400818,0.8334919810295105,-0.5014955997467041,0.13315191864967346,0.3184334933757782,0.04271865263581276,0.7555040121078491,1.107752799987793,-0.13859878480434418,0.010165202431380749,0.07838012278079987,-0.33201688528060913,-0.725426435470581,0.5845129489898682,0.4507371783256531,1.2480348348617554,0.4426743984222412,-0.030769824981689453,-1.2961146831512451,-0.003193405456840992,0.42217740416526794,0.49593624472618103,-0.07310553640127182,-0.3994767665863037,-0.17723053693771362,-0.3812653422355652,-0.19426807761192322,1.4638487100601196,0.433594673871994,-1.5870555639266968,-1.130031704902649,-1.6019803285598755,1.084046721458435,1.9792386293411255,1.2774056196212769,0.8620879054069519,-0.6972556710243225,0.21097099781036377,0.6069953441619873,1.363131046295166,-0.29832470417022705,1.149277687072754,0.4275382161140442,0.06309136003255844,-1.6954319477081299,-1.794646978378296,0.7169929146766663,0.1981617659330368,1.085744023323059,-0.33051344752311707,1.0096235275268555,0.75430828332901,-0.19458575546741486,1.0393561124801636,-0.642835795879364,0.0801069363951683,0.22875647246837616,0.26113247871398926,0.7392599582672119,0.1790565699338913,-0.6108691096305847,1.3308401107788086,-0.8439817428588867,0.6721470952033997,0.8044684529304504,0.543719470500946,1.17563796043396,-0.3098427355289459,-1.6955710649490356,0.07495195418596268,1.6023558378219604,0.2576019763946533,1.2534855604171753,-0.7524093389511108,0.7544676661491394,0.08308909088373184,0.31269627809524536,0.6965460181236267,-0.14353343844413757,0.7640032172203064,-1.5974022150039673,-0.15836991369724274,2.0236902236938477,0.16288521885871887,-0.40613672137260437,2.233203887939453,0.22339557111263275,-0.2147659808397293,-0.4337511956691742,0.6778897643089294,-0.1243058517575264,-0.6963711977005005,-0.05581837147474289,-0.06304558366537094,1.4703322649002075,0.9911249279975891,-2.032090902328491,-0.29664623737335205,-0.5116559267044067,-0.8420596718788147,-0.5349574685096741,0.03623894974589348,1.2961738109588623,0.3121591806411743,0.6481523513793945,-2.0097270011901855,0.46545812487602234,1.5107535123825073,1.7330855131149292,0.5479357838630676,-0.43698742985725403,0.39227885007858276,0.22873488068580627,1.3329083919525146,-1.3429479598999023,0.2357502430677414,-1.5136573314666748,0.40926656126976013,0.31702351570129395,-0.4018489122390747,-1.0220303535461426,1.3604559898376465,-0.06415586173534393,-1.2788255214691162,-1.2113103866577148,0.4892254173755646,-0.8754637837409973,-0.2869877219200134,0.3352278769016266,-0.20143020153045654,-2.0232646465301514,-1.1038637161254883,0.9604753851890564,1.7369104623794556,0.7262670397758484,-0.8887243866920471,0.2167271077632904,-1.2605280876159668,0.6748003959655762,1.6890078783035278,-1.600390911102295,-0.5311992764472961,2.483781576156616,-1.4352612495422363,0.08425848931074142,-0.7555047273635864,0.267691045999527,-0.9848172664642334,2.2676920890808105,0.12364467233419418,-1.0702983140945435,0.7506659030914307,0.36938413977622986,0.427751749753952,-0.8664410710334778,-0.7894269824028015,-0.839769184589386,-0.9093010425567627,1.1644729375839233,-0.6665809154510498,0.22833403944969177]},"outputBias":{"rows":20,"columns":1,"weights":[-0.5342796444892883,-0.1424056440591812,-0.8968182802200317,-0.5087051391601562,-0.9263194799423218,-0.6139559149742126,-0.6221150159835815,-0.5746688842773438,0.5443210005760193,-0.462608277797699,-0.9882140159606934,-0.19727963209152222,-0.5443770885467529,-0.6006495952606201,-0.9440664649009705,-0.9359270334243774,-1.4703925848007202,-0.8008082509040833,-0.8982592821121216,-1.3437044620513916]},"cellActivationMatrix":{"rows":20,"columns":37,"weights":[-0.10294310003519058,-0.14868471026420593,0.1440698504447937,0.0011753772851079702,1.4263988733291626,-0.4643869698047638,0.17690280079841614,0.31719568371772766,-0.6328087449073792,0.6761773824691772,0.26908066868782043,0.022360267117619514,1.1411882638931274,-0.5659390687942505,0.2799118459224701,-0.1537691354751587,-0.7661303877830505,-0.732970118522644,-0.14272479712963104,-0.5989015102386475,-0.6462284326553345,0.17074137926101685,-0.39590826630592346,-0.47978997230529785,-0.4324358403682709,0.2822425663471222,-0.05106684938073158,0.020949997007846832,0.346304327249527,-0.3008885085582733,0.2623838782310486,0.4139688313007355,-0.2468840777873993,-0.03102150186896324,-0.27820977568626404,0.2645469605922699,-2.159463405609131,-0.10696923732757568,1.264290690422058,0.35670197010040283,-0.05571521446108818,-0.8780015110969543,0.41264861822128296,0.06640566140413284,1.0022305250167847,-0.10221565514802933,0.9116947650909424,-0.3132424056529999,0.010735854506492615,0.02068646438419819,1.6162704229354858,0.6249790787696838,0.3484874665737152,1.308077335357666,-0.6645603179931641,1.242423176765442,-0.4548461139202118,0.912759006023407,-1.6867154836654663,-1.1229896545410156,-0.0856156274676323,-0.3765013515949249,-0.23041601479053497,-0.6921758055686951,-0.3237040042877197,-0.26682859659194946,0.08124557137489319,0.6134894490242004,-0.06141088902950287,-0.19165658950805664,0.8612857460975647,0.35545724630355835,2.472440719604492,-0.44696974754333496,0.5655105710029602,0.21257677674293518,0.022023580968379974,0.3555814325809479,0.16722527146339417,0.6518175601959229,0.8797510862350464,0.3656262755393982,0.9493825435638428,0.6271458268165588,-0.7248239517211914,0.3888493478298187,-0.3460240066051483,0.22409722208976746,0.414808064699173,0.1956324577331543,0.3733505308628082,0.5146026611328125,